<?xml version="1.0"?>
<MethodSetup Method="BDT::BDT">
  <GeneralInfo>
    <Info name="TMVA Release" value="4.2.0 [262656]"/>
    <Info name="ROOT Release" value="6.02/13 [393741]"/>
    <Info name="Creator" value="heilman"/>
    <Info name="Date" value="Thu Apr  7 01:45:26 2016"/>
    <Info name="Host" value="Linux vocms0301.cern.ch 2.6.32-573.7.1.el6.x86_64 #1 SMP Wed Sep 23 10:12:03 CEST 2015 x86_64 x86_64 x86_64 GNU/Linux"/>
    <Info name="Dir" value="/storage_mnt/storage/user/heilman/CMSSW_7_6_3/src/TopBrussels/FourTops"/>
    <Info name="Training events" value="65000"/>
    <Info name="TrainingTime" value="8.87474508e+01"/>
    <Info name="AnalysisType" value="Classification"/>
  </GeneralInfo>
  <Options>
    <Option name="V" modified="Yes">False</Option>
    <Option name="VerbosityLevel" modified="No">Default</Option>
    <Option name="VarTransform" modified="No">None</Option>
    <Option name="H" modified="Yes">False</Option>
    <Option name="CreateMVAPdfs" modified="No">False</Option>
    <Option name="IgnoreNegWeightsInTraining" modified="No">False</Option>
    <Option name="NTrees" modified="Yes">400</Option>
    <Option name="MaxDepth" modified="Yes">3</Option>
    <Option name="MinNodeSize" modified="No">0.6153853.2</Option>
    <Option name="nCuts" modified="Yes">20</Option>
    <Option name="BoostType" modified="Yes">Grad</Option>
    <Option name="AdaBoostR2Loss" modified="No">quadratic</Option>
    <Option name="UseBaggedBoost" modified="No">False</Option>
    <Option name="Shrinkage" modified="No">1.000000e+00</Option>
    <Option name="AdaBoostBeta" modified="No">5.000000e-01</Option>
    <Option name="UseRandomisedTrees" modified="No">False</Option>
    <Option name="UseNvars" modified="No">4</Option>
    <Option name="UsePoissonNvars" modified="No">True</Option>
    <Option name="BaggedSampleFraction" modified="No">6.000000e-01</Option>
    <Option name="UseYesNoLeaf" modified="No">True</Option>
    <Option name="NegWeightTreatment" modified="Yes">pray</Option>
    <Option name="Css" modified="No">1.000000e+00</Option>
    <Option name="Cts_sb" modified="No">1.000000e+00</Option>
    <Option name="Ctb_ss" modified="No">1.000000e+00</Option>
    <Option name="Cbb" modified="No">1.000000e+00</Option>
    <Option name="NodePurityLimit" modified="No">5.000000e-01</Option>
    <Option name="SeparationType" modified="Yes">giniindex</Option>
    <Option name="DoBoostMonitor" modified="No">False</Option>
    <Option name="UseFisherCuts" modified="No">False</Option>
    <Option name="MinLinCorrForFisher" modified="No">8.000000e-01</Option>
    <Option name="UseExclusiveVars" modified="No">False</Option>
    <Option name="DoPreselection" modified="No">False</Option>
    <Option name="SigToBkgFraction" modified="No">1.000000e+00</Option>
    <Option name="PruneMethod" modified="Yes">nopruning</Option>
    <Option name="PruneStrength" modified="No">0.000000e+00</Option>
    <Option name="PruningValFraction" modified="No">5.000000e-01</Option>
    <Option name="nEventsMin" modified="Yes">400</Option>
    <Option name="UseBaggedGrad" modified="No">False</Option>
    <Option name="GradBaggingFraction" modified="No">6.000000e-01</Option>
    <Option name="UseNTrainEvents" modified="No">0</Option>
    <Option name="NNodesMax" modified="No">0</Option>
  </Options>
  <Variables NVar="12">
    <Variable VarIndex="0" Expression="topness" Label="topness" Title="topness" Unit="" Internal="topness" Type="F" Min="-8.99791837e-01" Max="2.35076174e-01"/>
    <Variable VarIndex="1" Expression="LeadLepPt" Label="LeadLepPt" Title="LeadLepPt" Unit="" Internal="LeadLepPt" Type="F" Min="0.00000000e+00" Max="6.58195740e+02"/>
    <Variable VarIndex="2" Expression="LeadLepEta" Label="LeadLepEta" Title="LeadLepEta" Unit="" Internal="LeadLepEta" Type="F" Min="-2.45567298e+00" Max="2.47429585e+00"/>
    <Variable VarIndex="3" Expression="HTH" Label="HTH" Title="HTH" Unit="" Internal="HTH" Type="F" Min="0.00000000e+00" Max="9.77872491e-01"/>
    <Variable VarIndex="4" Expression="HTRat" Label="HTRat" Title="HTRat" Unit="" Internal="HTRat" Type="F" Min="0.00000000e+00" Max="9.42358732e-01"/>
    <Variable VarIndex="5" Expression="HTb" Label="HTb" Title="HTb" Unit="" Internal="HTb" Type="F" Min="0.00000000e+00" Max="2.04163330e+03"/>
    <Variable VarIndex="6" Expression="nLtags" Label="nLtags" Title="nLtags" Unit="" Internal="nLtags" Type="F" Min="0.00000000e+00" Max="8.00000000e+00"/>
    <Variable VarIndex="7" Expression="nMtags" Label="nMtags" Title="nMtags" Unit="" Internal="nMtags" Type="F" Min="0.00000000e+00" Max="7.00000000e+00"/>
    <Variable VarIndex="8" Expression="nTtags" Label="nTtags" Title="nTtags" Unit="" Internal="nTtags" Type="F" Min="0.00000000e+00" Max="5.00000000e+00"/>
    <Variable VarIndex="9" Expression="nJets" Label="nJets" Title="nJets" Unit="" Internal="nJets" Type="F" Min="0.00000000e+00" Max="1.50000000e+01"/>
    <Variable VarIndex="10" Expression="HT2M" Label="HT2M" Title="HT2M" Unit="" Internal="HT2M" Type="F" Min="0.00000000e+00" Max="3.10903320e+03"/>
    <Variable VarIndex="11" Expression="EventSph" Label="EventSph" Title="EventSph" Unit="" Internal="EventSph" Type="F" Min="0.00000000e+00" Max="9.02777016e-01"/>
  </Variables>
  <Spectators NSpec="0"/>
  <Classes NClass="2">
    <Class Name="Signal" Index="0"/>
    <Class Name="Background" Index="1"/>
  </Classes>
  <Transformations NTransformations="0"/>
  <MVAPdfs/>
  <Weights NTrees="400" AnalysisType="1">
    <BinaryTree type="DecisionTree" boostWeight="1.0000000000000000e+00" itree="0">
      <Node pos="s" depth="0" NCoef="0" IVar="9" Cut="6.4285712242126465e+00" cType="1" res="0.0000000000000000e+00" rms="5.0000000000000000e-01" purity="5.0000000000000000e-01" nType="0">
        <Node pos="l" depth="1" NCoef="0" IVar="7" Cut="2.2857143878936768e+00" cType="1" res="-2.5944679975509644e-01" rms="4.2741942405700684e-01" purity="2.4055320024490356e-01" nType="0">
          <Node pos="l" depth="2" NCoef="0" IVar="9" Cut="5.1428570747375488e+00" cType="1" res="-3.4181311726570129e-01" rms="3.6491614580154419e-01" purity="1.5818689763545990e-01" nType="0">
            <Node pos="l" depth="3" NCoef="0" IVar="-1" Cut="0.0000000000000000e+00" cType="1" res="-8.2684808969497681e-01" rms="2.8121268749237061e-01" purity="8.6575970053672791e-02" nType="-99"/>
            <Node pos="r" depth="3" NCoef="0" IVar="-1" Cut="0.0000000000000000e+00" cType="1" res="-3.2270437479019165e-01" rms="4.7324991226196289e-01" purity="3.3864781260490417e-01" nType="-99"/>
          </Node>
          <Node pos="r" depth="2" NCoef="0" IVar="0" Cut="7.2756357491016388e-02" cType="1" res="6.8811073899269104e-02" rms="4.9524238705635071e-01" purity="5.6881105899810791e-01" nType="0">
            <Node pos="l" depth="3" NCoef="0" IVar="-1" Cut="0.0000000000000000e+00" cType="1" res="-3.0060955882072449e-01" rms="4.7687363624572754e-01" purity="3.4969520568847656e-01" nType="-99"/>
            <Node pos="r" depth="3" NCoef="0" IVar="-1" Cut="0.0000000000000000e+00" cType="1" res="4.5895084738731384e-01" rms="4.4423082470893860e-01" purity="7.2947543859481812e-01" nType="-99"/>
          </Node>
        </Node>
        <Node pos="r" depth="1" NCoef="0" IVar="0" Cut="-1.3459555804729462e-01" cType="1" res="3.3713033795356750e-01" rms="3.6924672126770020e-01" purity="8.3713030815124512e-01" nType="0">
          <Node pos="l" depth="2" NCoef="0" IVar="7" Cut="2.2380952835083008e+00" cType="1" res="3.4369884524494410e-03" rms="4.9998819828033447e-01" purity="5.0343698263168335e-01" nType="0">
            <Node pos="l" depth="3" NCoef="0" IVar="-1" Cut="0.0000000000000000e+00" cType="1" res="-2.7199190855026245e-01" rms="4.8114976286888123e-01" purity="3.6400404572486877e-01" nType="-99"/>
            <Node pos="r" depth="3" NCoef="0" IVar="-1" Cut="0.0000000000000000e+00" cType="1" res="5.1903432607650757e-01" rms="4.2737668752670288e-01" purity="7.5951719284057617e-01" nType="-99"/>
          </Node>
          <Node pos="r" depth="2" NCoef="0" IVar="6" Cut="2.2857143878936768e+00" cType="1" res="3.7756314873695374e-01" rms="3.2778966426849365e-01" purity="8.7756317853927612e-01" nType="0">
            <Node pos="l" depth="3" NCoef="0" IVar="-1" Cut="0.0000000000000000e+00" cType="1" res="3.4035271406173706e-01" rms="4.7014892101287842e-01" purity="6.7017638683319092e-01" nType="-99"/>
            <Node pos="r" depth="3" NCoef="0" IVar="-1" Cut="0.0000000000000000e+00" cType="1" res="8.2871019840240479e-01" rms="2.7983897924423218e-01" purity="9.1435509920120239e-01" nType="-99"/>
          </Node>
        </Node>
      </Node>
    </BinaryTree>
    <BinaryTree type="DecisionTree" boostWeight="1.0000000000000000e+00" itree="1">
      <Node pos="s" depth="0" NCoef="0" IVar="0" Cut="1.2699350714683533e-01" cType="1" res="1.2768564047291875e-03" rms="3.6131197214126587e-01" purity="5.0000000000000000e-01" nType="0">
        <Node pos="l" depth="1" NCoef="0" IVar="6" Cut="3.1428570747375488e+00" cType="1" res="-7.4737347662448883e-02" rms="3.5280784964561462e-01" purity="3.0118423700332642e-01" nType="0">
          <Node pos="l" depth="2" NCoef="0" IVar="9" Cut="7.4285712242126465e+00" cType="1" res="-1.1414621770381927e-01" rms="3.3147606253623962e-01" purity="2.0243693888187408e-01" nType="0">
            <Node pos="l" depth="3" NCoef="0" IVar="-1" Cut="0.0000000000000000e+00" cType="1" res="-3.9376986026763916e-01" rms="3.1787437200546265e-01" purity="1.4896917343139648e-01" nType="-99"/>
            <Node pos="r" depth="3" NCoef="0" IVar="-1" Cut="0.0000000000000000e+00" cType="1" res="1.2830005586147308e-01" rms="4.0972697734832764e-01" purity="7.2592592239379883e-01" nType="-99"/>
          </Node>
          <Node pos="r" depth="2" NCoef="0" IVar="5" Cut="4.3996197509765625e+02" cType="1" res="8.5287377238273621e-02" rms="3.8965627551078796e-01" purity="7.0216029882431030e-01" nType="0">
            <Node pos="l" depth="3" NCoef="0" IVar="-1" Cut="0.0000000000000000e+00" cType="1" res="1.0604604333639145e-01" rms="4.0359175205230713e-01" purity="6.3438564538955688e-01" nType="-99"/>
            <Node pos="r" depth="3" NCoef="0" IVar="-1" Cut="0.0000000000000000e+00" cType="1" res="5.1168543100357056e-01" rms="3.4342890977859497e-01" purity="8.2991558313369751e-01" nType="-99"/>
          </Node>
        </Node>
        <Node pos="r" depth="1" NCoef="0" IVar="9" Cut="4.2857141494750977e+00" cType="1" res="9.7480259835720062e-02" rms="3.4880414605140686e-01" purity="7.5162076950073242e-01" nType="0">
          <Node pos="l" depth="2" NCoef="0" IVar="0" Cut="1.9568604230880737e-01" cType="1" res="-9.1649070382118225e-02" rms="3.6459258198738098e-01" purity="1.6235631704330444e-01" nType="0">
            <Node pos="l" depth="3" NCoef="0" IVar="-1" Cut="0.0000000000000000e+00" cType="1" res="-4.3893656134605408e-01" rms="3.1936499476432800e-01" purity="1.1976818740367889e-01" nType="-99"/>
            <Node pos="r" depth="3" NCoef="0" IVar="-1" Cut="0.0000000000000000e+00" cType="1" res="4.5489665120840073e-02" rms="4.5590278506278992e-01" purity="2.8598129749298096e-01" nType="-99"/>
          </Node>
          <Node pos="r" depth="2" NCoef="0" IVar="11" Cut="2.1494691073894501e-01" cType="1" res="1.1232508718967438e-01" rms="3.4315055608749390e-01" purity="7.9787236452102661e-01" nType="0">
            <Node pos="l" depth="3" NCoef="0" IVar="-1" Cut="0.0000000000000000e+00" cType="1" res="1.1637111008167267e-01" rms="3.8505566120147705e-01" purity="6.9662922620773315e-01" nType="-99"/>
            <Node pos="r" depth="3" NCoef="0" IVar="-1" Cut="0.0000000000000000e+00" cType="1" res="4.1858649253845215e-01" rms="3.2656973600387573e-01" purity="8.2768857479095459e-01" nType="-99"/>
          </Node>
        </Node>
      </Node>
    </BinaryTree>
    <BinaryTree type="DecisionTree" boostWeight="1.0000000000000000e+00" itree="2">
      <Node pos="s" depth="0" NCoef="0" IVar="6" Cut="2.2857143878936768e+00" cType="1" res="-1.7741678748279810e-03" rms="3.3964082598686218e-01" purity="5.0000000000000000e-01" nType="0">
        <Node pos="l" depth="1" NCoef="0" IVar="10" Cut="8.8829522705078125e+02" cType="1" res="-5.2711311727762222e-02" rms="3.1398907303810120e-01" purity="1.9499978423118591e-01" nType="0">
          <Node pos="l" depth="2" NCoef="0" IVar="5" Cut="4.9544699096679688e+02" cType="1" res="-6.1007130891084671e-02" rms="3.0676913261413574e-01" purity="1.7384463548660278e-01" nType="0">
            <Node pos="l" depth="3" NCoef="0" IVar="-1" Cut="0.0000000000000000e+00" cType="1" res="-2.7872300148010254e-01" rms="2.9895034432411194e-01" purity="1.6623474657535553e-01" nType="-99"/>
            <Node pos="r" depth="3" NCoef="0" IVar="-1" Cut="0.0000000000000000e+00" cType="1" res="4.3828701972961426e-01" rms="4.0345042943954468e-01" purity="3.3202743530273438e-01" nType="-99"/>
          </Node>
          <Node pos="r" depth="2" NCoef="0" IVar="11" Cut="2.2750113904476166e-01" cType="1" res="1.1278840899467468e-01" rms="3.9904591441154480e-01" purity="6.1704033613204956e-01" nType="0">
            <Node pos="l" depth="3" NCoef="0" IVar="-1" Cut="0.0000000000000000e+00" cType="1" res="5.6673046201467514e-02" rms="4.0804082155227661e-01" purity="4.1234567761421204e-01" nType="-99"/>
            <Node pos="r" depth="3" NCoef="0" IVar="-1" Cut="0.0000000000000000e+00" cType="1" res="4.8404571413993835e-01" rms="3.8362517952919006e-01" purity="7.3380279541015625e-01" nType="-99"/>
          </Node>
        </Node>
        <Node pos="r" depth="1" NCoef="0" IVar="9" Cut="4.2857141494750977e+00" cType="1" res="2.6799611747264862e-02" rms="3.4998497366905212e-01" purity="6.7109340429306030e-01" nType="0">
          <Node pos="l" depth="2" NCoef="0" IVar="7" Cut="2.2857143878936768e+00" cType="1" res="-7.0886775851249695e-02" rms="3.1816920638084412e-01" purity="1.1592039465904236e-01" nType="0">
            <Node pos="l" depth="3" NCoef="0" IVar="-1" Cut="0.0000000000000000e+00" cType="1" res="-1.4278562366962433e-01" rms="2.5815644860267639e-01" purity="7.1680791676044464e-02" nType="-99"/>
            <Node pos="r" depth="3" NCoef="0" IVar="-1" Cut="0.0000000000000000e+00" cType="1" res="-4.5448791980743408e-01" rms="4.0751487016677856e-01" purity="2.2138047218322754e-01" nType="-99"/>
          </Node>
          <Node pos="r" depth="2" NCoef="0" IVar="5" Cut="3.4574603271484375e+02" cType="1" res="3.7237912416458130e-02" rms="3.5161390900611877e-01" purity="7.3041653633117676e-01" nType="0">
            <Node pos="l" depth="3" NCoef="0" IVar="-1" Cut="0.0000000000000000e+00" cType="1" res="5.0561539828777313e-02" rms="3.6901935935020447e-01" purity="6.7809945344924927e-01" nType="-99"/>
            <Node pos="r" depth="3" NCoef="0" IVar="-1" Cut="0.0000000000000000e+00" cType="1" res="3.2021027803421021e-01" rms="3.1694194674491882e-01" purity="8.1633657217025757e-01" nType="-99"/>
          </Node>
        </Node>
      </Node>
    </BinaryTree>
    <BinaryTree type="DecisionTree" boostWeight="1.0000000000000000e+00" itree="3">
      <Node pos="s" depth="0" NCoef="0" IVar="0" Cut="-5.7554382085800171e-01" cType="1" res="-9.9580443929880857e-04" rms="3.3255600929260254e-01" purity="5.0000000000000000e-01" nType="0">
        <Node pos="l" depth="1" NCoef="0" IVar="6" Cut="3.1904761791229248e+00" cType="1" res="-6.1857882887125015e-02" rms="2.6395335793495178e-01" purity="1.0699588805437088e-01" nType="0">
          <Node pos="l" depth="2" NCoef="0" IVar="9" Cut="5.2857141494750977e+00" cType="1" res="-4.9396749585866928e-02" rms="2.3334071040153503e-01" purity="7.2771027684211731e-02" nType="0">
            <Node pos="l" depth="3" NCoef="0" IVar="-1" Cut="0.0000000000000000e+00" cType="1" res="-2.7935120463371277e-01" rms="1.8266382813453674e-01" purity="3.5488352179527283e-02" nType="-99"/>
            <Node pos="r" depth="3" NCoef="0" IVar="-1" Cut="0.0000000000000000e+00" cType="1" res="-2.7951079607009888e-01" rms="3.3629986643791199e-01" purity="1.8040089309215546e-01" nType="-99"/>
          </Node>
          <Node pos="r" depth="2" NCoef="0" IVar="4" Cut="4.7512564063072205e-01" cType="1" res="-1.7125006020069122e-01" rms="4.3587115406990051e-01" purity="4.0744465589523315e-01" nType="0">
            <Node pos="l" depth="3" NCoef="0" IVar="-1" Cut="0.0000000000000000e+00" cType="1" res="-6.2416726350784302e-01" rms="4.2664989829063416e-01" purity="3.2681018114089966e-01" nType="-99"/>
            <Node pos="r" depth="3" NCoef="0" IVar="-1" Cut="0.0000000000000000e+00" cType="1" res="-3.0850574374198914e-01" rms="4.3869513273239136e-01" purity="4.9275362491607666e-01" nType="-99"/>
          </Node>
        </Node>
        <Node pos="r" depth="1" NCoef="0" IVar="11" Cut="1.7195752263069153e-01" cType="1" res="9.7057037055492401e-03" rms="3.4208637475967407e-01" purity="5.6910276412963867e-01" nType="0">
          <Node pos="l" depth="2" NCoef="0" IVar="0" Cut="1.5326376259326935e-01" cType="1" res="-3.9764299988746643e-02" rms="3.4664785861968994e-01" purity="3.9158454537391663e-01" nType="0">
            <Node pos="l" depth="3" NCoef="0" IVar="-1" Cut="0.0000000000000000e+00" cType="1" res="-2.7523753046989441e-01" rms="3.2650148868560791e-01" purity="2.6496213674545288e-01" nType="-99"/>
            <Node pos="r" depth="3" NCoef="0" IVar="-1" Cut="0.0000000000000000e+00" cType="1" res="9.9978595972061157e-03" rms="3.7973898649215698e-01" purity="6.4122784137725830e-01" nType="-99"/>
          </Node>
          <Node pos="r" depth="2" NCoef="0" IVar="10" Cut="4.9932043457031250e+02" cType="1" res="2.1376412361860275e-02" rms="3.3995348215103149e-01" purity="6.1098194122314453e-01" nType="0">
            <Node pos="l" depth="3" NCoef="0" IVar="-1" Cut="0.0000000000000000e+00" cType="1" res="4.7674835659563541e-03" rms="3.6859673261642456e-01" purity="4.4184184074401855e-01" nType="-99"/>
            <Node pos="r" depth="3" NCoef="0" IVar="-1" Cut="0.0000000000000000e+00" cType="1" res="2.1746367216110229e-01" rms="3.0270484089851379e-01" purity="8.0224859714508057e-01" nType="-99"/>
          </Node>
        </Node>
      </Node>
    </BinaryTree>
    <BinaryTree type="DecisionTree" boostWeight="1.0000000000000000e+00" itree="4">
      <Node pos="s" depth="0" NCoef="0" IVar="0" Cut="1.8103483319282532e-01" cType="1" res="-4.4547699508257210e-04" rms="3.2899653911590576e-01" purity="5.0000000000000000e-01" nType="0">
        <Node pos="l" depth="1" NCoef="0" IVar="5" Cut="3.8888253784179688e+02" cType="1" res="-8.4424596279859543e-03" rms="3.3429545164108276e-01" purity="4.1993162035942078e-01" nType="0">
          <Node pos="l" depth="2" NCoef="0" IVar="9" Cut="8.5714282989501953e+00" cType="1" res="-1.8467441201210022e-02" rms="3.3571401238441467e-01" purity="3.5877457261085510e-01" nType="0">
            <Node pos="l" depth="3" NCoef="0" IVar="-1" Cut="0.0000000000000000e+00" cType="1" res="-1.1560508608818054e-01" rms="3.4107369184494019e-01" purity="3.0115160346031189e-01" nType="-99"/>
            <Node pos="r" depth="3" NCoef="0" IVar="-1" Cut="0.0000000000000000e+00" cType="1" res="1.9415646791458130e-01" rms="2.7383443713188171e-01" purity="9.0807354450225830e-01" nType="-99"/>
          </Node>
          <Node pos="r" depth="2" NCoef="0" IVar="4" Cut="2.8002429008483887e-01" cType="1" res="2.3161139339208603e-02" rms="3.2778280973434448e-01" purity="6.1272829771041870e-01" nType="0">
            <Node pos="l" depth="3" NCoef="0" IVar="-1" Cut="0.0000000000000000e+00" cType="1" res="-1.4777776598930359e-01" rms="3.4005171060562134e-01" purity="2.6627218723297119e-01" nType="-99"/>
            <Node pos="r" depth="3" NCoef="0" IVar="-1" Cut="0.0000000000000000e+00" cType="1" res="2.5115567445755005e-01" rms="3.1914606690406799e-01" purity="7.6837724447250366e-01" nType="-99"/>
          </Node>
        </Node>
        <Node pos="r" depth="1" NCoef="0" IVar="0" Cut="2.0682762563228607e-01" cType="1" res="3.1752701848745346e-02" rms="3.0461972951889038e-01" purity="8.2237857580184937e-01" nType="0">
          <Node pos="l" depth="2" NCoef="0" IVar="11" Cut="4.3962588906288147e-01" cType="1" res="1.0188780725002289e-02" rms="3.1571820378303528e-01" purity="7.9071694612503052e-01" nType="0">
            <Node pos="l" depth="3" NCoef="0" IVar="-1" Cut="0.0000000000000000e+00" cType="1" res="-2.2986985743045807e-02" rms="3.3396667242050171e-01" purity="7.4728852510452271e-01" nType="-99"/>
            <Node pos="r" depth="3" NCoef="0" IVar="-1" Cut="0.0000000000000000e+00" cType="1" res="2.1611522138118744e-01" rms="2.7896180748939514e-01" purity="8.6686950922012329e-01" nType="-99"/>
          </Node>
          <Node pos="r" depth="2" NCoef="0" IVar="7" Cut="2.2857143878936768e+00" cType="1" res="5.9172559529542923e-02" rms="2.8756839036941528e-01" purity="8.6263835430145264e-01" nType="0">
            <Node pos="l" depth="3" NCoef="0" IVar="-1" Cut="0.0000000000000000e+00" cType="1" res="3.7497356534004211e-01" rms="3.5302203893661499e-01" purity="7.6518821716308594e-01" nType="-99"/>
            <Node pos="r" depth="3" NCoef="0" IVar="-1" Cut="0.0000000000000000e+00" cType="1" res="1.9343040883541107e-01" rms="2.0696473121643066e-01" purity="9.4950163364410400e-01" nType="-99"/>
          </Node>
        </Node>
      </Node>
    </BinaryTree>
    <BinaryTree type="DecisionTree" boostWeight="1.0000000000000000e+00" itree="5">
      <Node pos="s" depth="0" NCoef="0" IVar="11" Cut="5.1587259769439697e-01" cType="1" res="6.7344447597861290e-04" rms="3.2594975829124451e-01" purity="5.0000000000000000e-01" nType="0">
        <Node pos="l" depth="1" NCoef="0" IVar="10" Cut="1.0363443603515625e+03" cType="1" res="-5.9148464351892471e-03" rms="3.2576528191566467e-01" purity="4.6952411532402039e-01" nType="0">
          <Node pos="l" depth="2" NCoef="0" IVar="5" Cut="1.9444126892089844e+02" cType="1" res="-9.6762683242559433e-03" rms="3.2911679148674011e-01" purity="4.4062149524688721e-01" nType="0">
            <Node pos="l" depth="3" NCoef="0" IVar="-1" Cut="0.0000000000000000e+00" cType="1" res="-1.6514711081981659e-01" rms="3.4395921230316162e-01" purity="3.5682463645935059e-01" nType="-99"/>
            <Node pos="r" depth="3" NCoef="0" IVar="-1" Cut="0.0000000000000000e+00" cType="1" res="-6.8854237906634808e-03" rms="3.2339686155319214e-01" purity="4.6962347626686096e-01" nType="-99"/>
          </Node>
          <Node pos="r" depth="2" NCoef="0" IVar="9" Cut="6.0952382087707520e+00" cType="1" res="5.0985258072614670e-02" rms="2.6357078552246094e-01" purity="9.0674227476119995e-01" nType="0">
            <Node pos="l" depth="3" NCoef="0" IVar="-1" Cut="0.0000000000000000e+00" cType="1" res="7.7748626470565796e-01" rms="3.9731588959693909e-01" purity="6.7619049549102783e-01" nType="-99"/>
            <Node pos="r" depth="3" NCoef="0" IVar="-1" Cut="0.0000000000000000e+00" cType="1" res="2.0914112031459808e-01" rms="2.2632229328155518e-01" purity="9.4190269708633423e-01" nType="-99"/>
          </Node>
        </Node>
        <Node pos="r" depth="1" NCoef="0" IVar="9" Cut="6.0952382087707520e+00" cType="1" res="2.5089997798204422e-02" rms="3.2547158002853394e-01" purity="6.1294525861740112e-01" nType="0">
          <Node pos="l" depth="2" NCoef="0" IVar="9" Cut="5.0476188659667969e+00" cType="1" res="4.4690776616334915e-02" rms="3.6341649293899536e-01" purity="3.3768710494041443e-01" nType="0">
            <Node pos="l" depth="3" NCoef="0" IVar="-1" Cut="0.0000000000000000e+00" cType="1" res="5.4096195846796036e-02" rms="3.1273055076599121e-01" purity="1.6642616689205170e-01" nType="-99"/>
            <Node pos="r" depth="3" NCoef="0" IVar="-1" Cut="0.0000000000000000e+00" cType="1" res="3.2383948564529419e-01" rms="4.2499056458473206e-01" purity="6.0579818487167358e-01" nType="-99"/>
          </Node>
          <Node pos="r" depth="2" NCoef="0" IVar="4" Cut="4.3602877855300903e-01" cType="1" res="6.0045840218663216e-03" rms="2.8238430619239807e-01" purity="8.8096600770950317e-01" nType="0">
            <Node pos="l" depth="3" NCoef="0" IVar="-1" Cut="0.0000000000000000e+00" cType="1" res="-2.4848432838916779e-01" rms="3.5879188776016235e-01" purity="7.5402885675430298e-01" nType="-99"/>
            <Node pos="r" depth="3" NCoef="0" IVar="-1" Cut="0.0000000000000000e+00" cType="1" res="1.1771123111248016e-01" rms="2.6301437616348267e-01" purity="9.0668499469757080e-01" nType="-99"/>
          </Node>
        </Node>
      </Node>
    </BinaryTree>
    <BinaryTree type="DecisionTree" boostWeight="1.0000000000000000e+00" itree="6">
      <Node pos="s" depth="0" NCoef="0" IVar="3" Cut="7.4504572153091431e-01" cType="1" res="1.5932598034851253e-04" rms="3.2383236289024353e-01" purity="5.0000000000000000e-01" nType="0">
        <Node pos="l" depth="1" NCoef="0" IVar="6" Cut="4.1904764175415039e+00" cType="1" res="-4.8798592761158943e-03" rms="3.2350382208824158e-01" purity="4.9429765343666077e-01" nType="0">
          <Node pos="l" depth="2" NCoef="0" IVar="2" Cut="-2.2209124565124512e+00" cType="1" res="-8.5943602025508881e-03" rms="3.3270743489265442e-01" purity="4.4345715641975403e-01" nType="0">
            <Node pos="l" depth="3" NCoef="0" IVar="-1" Cut="0.0000000000000000e+00" cType="1" res="5.1513844728469849e-01" rms="3.5930487513542175e-01" purity="6.8023258447647095e-01" nType="-99"/>
            <Node pos="r" depth="3" NCoef="0" IVar="-1" Cut="0.0000000000000000e+00" cType="1" res="-5.1562428474426270e-02" rms="3.3220475912094116e-01" purity="4.4085010886192322e-01" nType="-99"/>
          </Node>
          <Node pos="r" depth="2" NCoef="0" IVar="4" Cut="4.2944294214248657e-01" cType="1" res="2.7159659191966057e-02" rms="2.2674924135208130e-01" purity="9.3282359838485718e-01" nType="0">
            <Node pos="l" depth="3" NCoef="0" IVar="-1" Cut="0.0000000000000000e+00" cType="1" res="-3.1867828965187073e-01" rms="3.7498348951339722e-01" purity="7.7855885028839111e-01" nType="-99"/>
            <Node pos="r" depth="3" NCoef="0" IVar="-1" Cut="0.0000000000000000e+00" cType="1" res="3.0675813555717468e-01" rms="2.0054404437541962e-01" purity="9.5064985752105713e-01" nType="-99"/>
          </Node>
        </Node>
        <Node pos="r" depth="1" NCoef="0" IVar="2" Cut="-8.1967663764953613e-01" cType="1" res="2.2129874676465988e-02" rms="3.2434746623039246e-01" purity="5.2486187219619751e-01" nType="0">
          <Node pos="l" depth="2" NCoef="0" IVar="0" Cut="-2.9595443606376648e-01" cType="1" res="7.0960246026515961e-02" rms="3.3008760213851929e-01" purity="6.1866891384124756e-01" nType="0">
            <Node pos="l" depth="3" NCoef="0" IVar="-1" Cut="0.0000000000000000e+00" cType="1" res="9.0133309364318848e-01" rms="3.7746086716651917e-01" purity="2.8606358170509338e-01" nType="-99"/>
            <Node pos="r" depth="3" NCoef="0" IVar="-1" Cut="0.0000000000000000e+00" cType="1" res="3.0372777581214905e-01" rms="3.1759652495384216e-01" purity="6.8737375736236572e-01" nType="-99"/>
          </Node>
          <Node pos="r" depth="2" NCoef="0" IVar="2" Cut="1.0365087985992432e+00" cType="1" res="1.0150437243282795e-02" rms="3.2179376482963562e-01" purity="5.0184839963912964e-01" nType="0">
            <Node pos="l" depth="3" NCoef="0" IVar="-1" Cut="0.0000000000000000e+00" cType="1" res="-1.0729603469371796e-02" rms="3.2258871197700500e-01" purity="4.8337596654891968e-01" nType="-99"/>
            <Node pos="r" depth="3" NCoef="0" IVar="-1" Cut="0.0000000000000000e+00" cType="1" res="4.0425235033035278e-01" rms="3.0943903326988220e-01" purity="6.0117876529693604e-01" nType="-99"/>
          </Node>
        </Node>
      </Node>
    </BinaryTree>
    <BinaryTree type="DecisionTree" boostWeight="1.0000000000000000e+00" itree="7">
      <Node pos="s" depth="0" NCoef="0" IVar="1" Cut="9.4027961730957031e+01" cType="1" res="1.9335252000018954e-04" rms="3.2220861315727234e-01" purity="5.0000000000000000e-01" nType="0">
        <Node pos="l" depth="1" NCoef="0" IVar="4" Cut="2.6720798015594482e-01" cType="1" res="-1.0510501451790333e-02" rms="3.1610324978828430e-01" purity="4.6963897347450256e-01" nType="0">
          <Node pos="l" depth="2" NCoef="0" IVar="9" Cut="5.1428570747375488e+00" cType="1" res="-3.5522982478141785e-02" rms="2.6719409227371216e-01" purity="1.2927249073982239e-01" nType="0">
            <Node pos="l" depth="3" NCoef="0" IVar="-1" Cut="0.0000000000000000e+00" cType="1" res="-1.4073759317398071e-01" rms="2.3540188372135162e-01" purity="7.5587086379528046e-02" nType="-99"/>
            <Node pos="r" depth="3" NCoef="0" IVar="-1" Cut="0.0000000000000000e+00" cType="1" res="-3.7437349557876587e-01" rms="3.5005185008049011e-01" purity="3.2027849555015564e-01" nType="-99"/>
          </Node>
          <Node pos="r" depth="2" NCoef="0" IVar="5" Cut="2.5153005981445312e+02" cType="1" res="-5.4953643120825291e-03" rms="3.2479348778724670e-01" purity="5.3788429498672485e-01" nType="0">
            <Node pos="l" depth="3" NCoef="0" IVar="-1" Cut="0.0000000000000000e+00" cType="1" res="-9.1003686189651489e-02" rms="3.3406391739845276e-01" purity="4.3082749843597412e-01" nType="-99"/>
            <Node pos="r" depth="3" NCoef="0" IVar="-1" Cut="0.0000000000000000e+00" cType="1" res="3.3695213496685028e-02" rms="3.1573370099067688e-01" purity="6.3481175899505615e-01" nType="-99"/>
          </Node>
        </Node>
        <Node pos="r" depth="1" NCoef="0" IVar="2" Cut="1.3004937171936035e+00" cType="1" res="1.0169277898967266e-02" rms="3.2748156785964966e-01" purity="5.2829629182815552e-01" nType="0">
          <Node pos="l" depth="2" NCoef="0" IVar="5" Cut="6.5379467773437500e+02" cType="1" res="4.9807648174464703e-03" rms="3.2737144827842712e-01" purity="5.2096414566040039e-01" nType="0">
            <Node pos="l" depth="3" NCoef="0" IVar="-1" Cut="0.0000000000000000e+00" cType="1" res="1.4415779151022434e-02" rms="3.2956519722938538e-01" purity="5.0636160373687744e-01" nType="-99"/>
            <Node pos="r" depth="3" NCoef="0" IVar="-1" Cut="0.0000000000000000e+00" cType="1" res="3.9591762423515320e-01" rms="2.7007305622100830e-01" purity="8.4005981683731079e-01" nType="-99"/>
          </Node>
          <Node pos="r" depth="2" NCoef="0" IVar="5" Cut="3.1388641357421875e+02" cType="1" res="6.1878528445959091e-02" rms="3.2406884431838989e-01" purity="6.0136896371841431e-01" nType="0">
            <Node pos="l" depth="3" NCoef="0" IVar="-1" Cut="0.0000000000000000e+00" cType="1" res="4.7724199295043945e-01" rms="3.4443038702011108e-01" purity="5.4844099283218384e-01" nType="-99"/>
            <Node pos="r" depth="3" NCoef="0" IVar="-1" Cut="0.0000000000000000e+00" cType="1" res="1.0960751771926880e-01" rms="2.8716912865638733e-01" purity="6.7610061168670654e-01" nType="-99"/>
          </Node>
        </Node>
      </Node>
    </BinaryTree>
    <BinaryTree type="DecisionTree" boostWeight="1.0000000000000000e+00" itree="8">
      <Node pos="s" depth="0" NCoef="0" IVar="9" Cut="7.1428570747375488e+00" cType="1" res="-1.4125072630122304e-04" rms="3.2082015275955200e-01" purity="5.0000000000000000e-01" nType="0">
        <Node pos="l" depth="1" NCoef="0" IVar="9" Cut="6.3333334922790527e+00" cType="1" res="-4.8183556646108627e-03" rms="3.4292140603065491e-01" purity="3.5189482569694519e-01" nType="0">
          <Node pos="l" depth="2" NCoef="0" IVar="7" Cut="2.2857143878936768e+00" cType="1" res="5.5410754866898060e-03" rms="3.3015620708465576e-01" purity="2.4055320024490356e-01" nType="0">
            <Node pos="l" depth="3" NCoef="0" IVar="-1" Cut="0.0000000000000000e+00" cType="1" res="9.0003609657287598e-02" rms="3.0635610222816467e-01" purity="1.5818689763545990e-01" nType="-99"/>
            <Node pos="r" depth="3" NCoef="0" IVar="-1" Cut="0.0000000000000000e+00" cType="1" res="-1.2841215729713440e-01" rms="4.0919148921966553e-01" purity="5.6881105899810791e-01" nType="-99"/>
          </Node>
          <Node pos="r" depth="2" NCoef="0" IVar="0" Cut="-1.3215969502925873e-01" cType="1" res="-3.9071898907423019e-02" rms="3.8010051846504211e-01" purity="7.2004681825637817e-01" nType="0">
            <Node pos="l" depth="3" NCoef="0" IVar="-1" Cut="0.0000000000000000e+00" cType="1" res="9.9872112274169922e-02" rms="4.1491228342056274e-01" purity="3.7055838108062744e-01" nType="-99"/>
            <Node pos="r" depth="3" NCoef="0" IVar="-1" Cut="0.0000000000000000e+00" cType="1" res="-2.4316415190696716e-01" rms="3.7293046712875366e-01" purity="7.7782440185546875e-01" nType="-99"/>
          </Node>
        </Node>
        <Node pos="r" depth="1" NCoef="0" IVar="6" Cut="2.2857143878936768e+00" cType="1" res="1.2898983433842659e-02" rms="2.4858482182025909e-01" purity="9.1293197870254517e-01" nType="0">
          <Node pos="l" depth="2" NCoef="0" IVar="10" Cut="7.4160235595703125e+02" cType="1" res="4.0045224130153656e-02" rms="3.9749175310134888e-01" purity="7.2983872890472412e-01" nType="0">
            <Node pos="l" depth="3" NCoef="0" IVar="-1" Cut="0.0000000000000000e+00" cType="1" res="1.8960480391979218e-01" rms="3.9840984344482422e-01" purity="7.0209789276123047e-01" nType="-99"/>
            <Node pos="r" depth="3" NCoef="0" IVar="-1" Cut="0.0000000000000000e+00" cType="1" res="-3.9367645978927612e-02" rms="3.9092686772346497e-01" purity="7.7930176258087158e-01" nType="-99"/>
          </Node>
          <Node pos="r" depth="2" NCoef="0" IVar="6" Cut="3.2380952835083008e+00" cType="1" res="8.8398680090904236e-03" rms="2.1744515001773834e-01" purity="9.4030952453613281e-01" nType="0">
            <Node pos="l" depth="3" NCoef="0" IVar="-1" Cut="0.0000000000000000e+00" cType="1" res="-7.0742264389991760e-02" rms="2.8048688173294067e-01" purity="8.9620906114578247e-01" nType="-99"/>
            <Node pos="r" depth="3" NCoef="0" IVar="-1" Cut="0.0000000000000000e+00" cType="1" res="2.2487132251262665e-01" rms="1.7031730711460114e-01" purity="9.6555358171463013e-01" nType="-99"/>
          </Node>
        </Node>
      </Node>
    </BinaryTree>
    <BinaryTree type="DecisionTree" boostWeight="1.0000000000000000e+00" itree="9">
      <Node pos="s" depth="0" NCoef="0" IVar="0" Cut="-1.9725449383258820e-01" cType="1" res="1.0109194554388523e-03" rms="3.1945940852165222e-01" purity="5.0000000000000000e-01" nType="0">
        <Node pos="l" depth="1" NCoef="0" IVar="4" Cut="5.5824977159500122e-01" cType="1" res="-1.8525876104831696e-02" rms="2.6589691638946533e-01" purity="1.3465264439582825e-01" nType="0">
          <Node pos="l" depth="2" NCoef="0" IVar="9" Cut="5.2857141494750977e+00" cType="1" res="-2.4393210187554359e-02" rms="2.4891065061092377e-01" purity="1.0076922923326492e-01" nType="0">
            <Node pos="l" depth="3" NCoef="0" IVar="-1" Cut="0.0000000000000000e+00" cType="1" res="-1.5108834207057953e-01" rms="2.0515941083431244e-01" purity="4.8884779214859009e-02" nType="-99"/>
            <Node pos="r" depth="3" NCoef="0" IVar="-1" Cut="0.0000000000000000e+00" cType="1" res="-1.9164267182350159e-01" rms="3.4276953339576721e-01" purity="2.4811290204524994e-01" nType="-99"/>
          </Node>
          <Node pos="r" depth="2" NCoef="0" IVar="6" Cut="3.1904761791229248e+00" cType="1" res="6.4188209362328053e-03" rms="3.2727679610252380e-01" purity="2.7870640158653259e-01" nType="0">
            <Node pos="l" depth="3" NCoef="0" IVar="-1" Cut="0.0000000000000000e+00" cType="1" res="1.1362789571285248e-01" rms="3.0923712253570557e-01" purity="1.9193324446678162e-01" nType="-99"/>
            <Node pos="r" depth="3" NCoef="0" IVar="-1" Cut="0.0000000000000000e+00" cType="1" res="-1.6936209797859192e-01" rms="3.8096636533737183e-01" purity="5.9327733516693115e-01" nType="-99"/>
          </Node>
        </Node>
        <Node pos="r" depth="1" NCoef="0" IVar="2" Cut="-1.2818708419799805e+00" cType="1" res="6.5966155380010605e-03" rms="3.3298355340957642e-01" purity="6.0445517301559448e-01" nType="0">
          <Node pos="l" depth="2" NCoef="0" IVar="0" Cut="-1.1188104748725891e-02" cType="1" res="3.1371019780635834e-02" rms="3.1901469826698303e-01" purity="6.7974680662155151e-01" nType="0">
            <Node pos="l" depth="3" NCoef="0" IVar="-1" Cut="0.0000000000000000e+00" cType="1" res="-9.2006817460060120e-02" rms="3.2812747359275818e-01" purity="3.0247932672500610e-01" nType="-99"/>
            <Node pos="r" depth="3" NCoef="0" IVar="-1" Cut="0.0000000000000000e+00" cType="1" res="1.9528661668300629e-01" rms="3.1734824180603027e-01" purity="7.2609138488769531e-01" nType="-99"/>
          </Node>
          <Node pos="r" depth="2" NCoef="0" IVar="0" Cut="1.1159145087003708e-01" cType="1" res="3.5533339250832796e-03" rms="3.3453276753425598e-01" purity="5.9520637989044189e-01" nType="0">
            <Node pos="l" depth="3" NCoef="0" IVar="-1" Cut="0.0000000000000000e+00" cType="1" res="6.9695748388767242e-02" rms="3.4463587403297424e-01" purity="3.8573291897773743e-01" nType="-99"/>
            <Node pos="r" depth="3" NCoef="0" IVar="-1" Cut="0.0000000000000000e+00" cType="1" res="-1.5485388226807117e-02" rms="3.2815766334533691e-01" purity="7.2067910432815552e-01" nType="-99"/>
          </Node>
        </Node>
      </Node>
    </BinaryTree>
    <BinaryTree type="DecisionTree" boostWeight="1.0000000000000000e+00" itree="10">
      <Node pos="s" depth="0" NCoef="0" IVar="8" Cut="2.1428570747375488e+00" cType="1" res="-3.0730426078662276e-04" rms="3.1859189271926880e-01" purity="5.0000000000000000e-01" nType="0">
        <Node pos="l" depth="1" NCoef="0" IVar="1" Cut="3.7611184692382812e+02" cType="1" res="-2.9939494561403990e-03" rms="3.2246503233909607e-01" purity="4.5538744330406189e-01" nType="0">
          <Node pos="l" depth="2" NCoef="0" IVar="11" Cut="7.7380889654159546e-01" cType="1" res="-3.5857406910508871e-03" rms="3.2223331928253174e-01" purity="4.5402398705482483e-01" nType="0">
            <Node pos="l" depth="3" NCoef="0" IVar="-1" Cut="0.0000000000000000e+00" cType="1" res="-2.1903038024902344e-02" rms="3.2209637761116028e-01" purity="4.5193928480148315e-01" nType="-99"/>
            <Node pos="r" depth="3" NCoef="0" IVar="-1" Cut="0.0000000000000000e+00" cType="1" res="3.9378151297569275e-01" rms="3.3084896206855774e-01" purity="7.3130840063095093e-01" nType="-99"/>
          </Node>
          <Node pos="r" depth="2" NCoef="0" IVar="-1" Cut="0.0000000000000000e+00" cType="1" res="3.6127960681915283e-01" rms="3.4353137016296387e-01" purity="6.4705884456634521e-01" nType="-99"/>
        </Node>
        <Node pos="r" depth="1" NCoef="0" IVar="6" Cut="3.1428570747375488e+00" cType="1" res="2.1139817312359810e-02" rms="2.8489035367965698e-01" purity="8.5613596439361572e-01" nType="0">
          <Node pos="l" depth="2" NCoef="0" IVar="0" Cut="1.2519030272960663e-01" cType="1" res="5.2332762628793716e-02" rms="3.4822756052017212e-01" purity="7.4316704273223877e-01" nType="0">
            <Node pos="l" depth="3" NCoef="0" IVar="-1" Cut="0.0000000000000000e+00" cType="1" res="3.5257470607757568e-01" rms="4.0859118103981018e-01" purity="5.7115012407302856e-01" nType="-99"/>
            <Node pos="r" depth="3" NCoef="0" IVar="-1" Cut="0.0000000000000000e+00" cType="1" res="1.0559950768947601e-01" rms="2.8639751672744751e-01" purity="8.8115715980529785e-01" nType="-99"/>
          </Node>
          <Node pos="r" depth="2" NCoef="0" IVar="8" Cut="3.0952382087707520e+00" cType="1" res="6.5586506389081478e-03" rms="2.4849611520767212e-01" purity="9.0894341468811035e-01" nType="0">
            <Node pos="l" depth="3" NCoef="0" IVar="-1" Cut="0.0000000000000000e+00" cType="1" res="1.2907071411609650e-01" rms="2.3757620155811310e-01" purity="9.1571640968322754e-01" nType="-99"/>
            <Node pos="r" depth="3" NCoef="0" IVar="-1" Cut="0.0000000000000000e+00" cType="1" res="-2.9862353205680847e-01" rms="2.8933101892471313e-01" purity="8.7848383188247681e-01" nType="-99"/>
          </Node>
        </Node>
      </Node>
    </BinaryTree>
    <BinaryTree type="DecisionTree" boostWeight="1.0000000000000000e+00" itree="11">
      <Node pos="s" depth="0" NCoef="0" IVar="11" Cut="8.5978761315345764e-02" cType="1" res="1.7358192417304963e-04" rms="3.1791958212852478e-01" purity="5.0000000000000000e-01" nType="0">
        <Node pos="l" depth="1" NCoef="0" IVar="10" Cut="5.0816604614257812e+02" cType="1" res="-2.5938320904970169e-02" rms="2.7648437023162842e-01" purity="2.1132597327232361e-01" nType="0">
          <Node pos="l" depth="2" NCoef="0" IVar="6" Cut="2.2857143878936768e+00" cType="1" res="-5.7810336351394653e-02" rms="2.1220983564853668e-01" purity="7.5046040117740631e-02" nType="0">
            <Node pos="l" depth="3" NCoef="0" IVar="-1" Cut="0.0000000000000000e+00" cType="1" res="-3.7694931030273438e-01" rms="1.1659189313650131e-01" purity="1.8729642033576965e-02" nType="-99"/>
            <Node pos="r" depth="3" NCoef="0" IVar="-1" Cut="0.0000000000000000e+00" cType="1" res="-4.6798050403594971e-01" rms="2.8903126716613770e-01" purity="1.4830508828163147e-01" nType="-99"/>
          </Node>
          <Node pos="r" depth="2" NCoef="0" IVar="4" Cut="4.9194979667663574e-01" cType="1" res="2.1869700402021408e-02" rms="3.4604933857917786e-01" purity="4.1574585437774658e-01" nType="0">
            <Node pos="l" depth="3" NCoef="0" IVar="-1" Cut="0.0000000000000000e+00" cType="1" res="-1.9911769032478333e-01" rms="2.7724936604499817e-01" purity="1.9252336025238037e-01" nType="-99"/>
            <Node pos="r" depth="3" NCoef="0" IVar="-1" Cut="0.0000000000000000e+00" cType="1" res="2.4256744980812073e-01" rms="3.7655195593833923e-01" purity="5.4654985666275024e-01" nType="-99"/>
          </Node>
        </Node>
        <Node pos="r" depth="1" NCoef="0" IVar="3" Cut="9.0433090925216675e-01" cType="1" res="1.7135801026597619e-03" rms="3.2012939453125000e-01" purity="5.1702511310577393e-01" nType="0">
          <Node pos="l" depth="2" NCoef="0" IVar="10" Cut="2.0935237121582031e+02" cType="1" res="9.1707450337707996e-04" rms="3.2017672061920166e-01" purity="5.1707744598388672e-01" nType="0">
            <Node pos="l" depth="3" NCoef="0" IVar="-1" Cut="0.0000000000000000e+00" cType="1" res="-1.7770424485206604e-01" rms="2.6539996266365051e-01" purity="9.9878691136837006e-02" nType="-99"/>
            <Node pos="r" depth="3" NCoef="0" IVar="-1" Cut="0.0000000000000000e+00" cType="1" res="1.0987449437379837e-02" rms="3.2226750254631042e-01" purity="5.3496032953262329e-01" nType="-99"/>
          </Node>
          <Node pos="r" depth="2" NCoef="0" IVar="3" Cut="9.2186611890792847e-01" cType="1" res="4.1221704334020615e-02" rms="3.1525799632072449e-01" purity="5.1442706584930420e-01" nType="0">
            <Node pos="l" depth="3" NCoef="0" IVar="-1" Cut="0.0000000000000000e+00" cType="1" res="-2.7011245489120483e-01" rms="2.8436872363090515e-01" purity="3.9479392766952515e-01" nType="-99"/>
            <Node pos="r" depth="3" NCoef="0" IVar="-1" Cut="0.0000000000000000e+00" cType="1" res="4.3245694041252136e-01" rms="3.2144644856452942e-01" purity="5.8776593208312988e-01" nType="-99"/>
          </Node>
        </Node>
      </Node>
    </BinaryTree>
    <BinaryTree type="DecisionTree" boostWeight="1.0000000000000000e+00" itree="12">
      <Node pos="s" depth="0" NCoef="0" IVar="5" Cut="6.8054443359375000e+02" cType="1" res="-4.1602813871577382e-04" rms="3.1700283288955688e-01" purity="5.0000000000000000e-01" nType="0">
        <Node pos="l" depth="1" NCoef="0" IVar="5" Cut="1.2936340332031250e+02" cType="1" res="-1.4941091649234295e-03" rms="3.1856498122215271e-01" purity="4.8880663514137268e-01" nType="0">
          <Node pos="l" depth="2" NCoef="0" IVar="2" Cut="-5.6526070833206177e-01" cType="1" res="-2.9158532619476318e-02" rms="3.3471903204917908e-01" purity="4.2191192507743835e-01" nType="0">
            <Node pos="l" depth="3" NCoef="0" IVar="-1" Cut="0.0000000000000000e+00" cType="1" res="-3.3556371927261353e-01" rms="3.3440634608268738e-01" purity="3.8778221607208252e-01" nType="-99"/>
            <Node pos="r" depth="3" NCoef="0" IVar="-1" Cut="0.0000000000000000e+00" cType="1" res="-4.0475461632013321e-02" rms="3.3288374543190002e-01" purity="4.3823435902595520e-01" nType="-99"/>
          </Node>
          <Node pos="r" depth="2" NCoef="0" IVar="0" Cut="1.8910838291049004e-02" cType="1" res="7.1538035990670323e-04" rms="3.1713527441024780e-01" purity="4.9414932727813721e-01" nType="0">
            <Node pos="l" depth="3" NCoef="0" IVar="-1" Cut="0.0000000000000000e+00" cType="1" res="-3.9534967392683029e-02" rms="2.8914010524749756e-01" purity="1.8718332052230835e-01" nType="-99"/>
            <Node pos="r" depth="3" NCoef="0" IVar="-1" Cut="0.0000000000000000e+00" cType="1" res="2.3867102339863777e-02" rms="3.3150595426559448e-01" purity="6.6350734233856201e-01" nType="-99"/>
          </Node>
        </Node>
        <Node pos="r" depth="1" NCoef="0" IVar="4" Cut="2.6411536335945129e-01" cType="1" res="3.2506506890058517e-02" rms="2.6277717947959900e-01" purity="8.4182435274124146e-01" nType="0">
          <Node pos="l" depth="2" NCoef="0" IVar="-1" Cut="0.0000000000000000e+00" cType="1" res="4.6044728159904480e-01" rms="3.7627926468849182e-01" purity="5.9914714097976685e-01" nType="-99"/>
          <Node pos="r" depth="2" NCoef="0" IVar="6" Cut="3.1428570747375488e+00" cType="1" res="1.0178676806390285e-02" rms="2.1329000592231750e-01" purity="9.1331660747528076e-01" nType="0">
            <Node pos="l" depth="3" NCoef="0" IVar="-1" Cut="0.0000000000000000e+00" cType="1" res="2.1324668824672699e-01" rms="2.6420032978057861e-01" purity="8.1144070625305176e-01" nType="-99"/>
            <Node pos="r" depth="3" NCoef="0" IVar="-1" Cut="0.0000000000000000e+00" cType="1" res="-3.9712730795145035e-02" rms="1.8633505702018738e-01" purity="9.5625001192092896e-01" nType="-99"/>
          </Node>
        </Node>
      </Node>
    </BinaryTree>
    <BinaryTree type="DecisionTree" boostWeight="1.0000000000000000e+00" itree="13">
      <Node pos="s" depth="0" NCoef="0" IVar="4" Cut="1.7949689924716949e-01" cType="1" res="-5.3168751037446782e-05" rms="3.1646096706390381e-01" purity="5.0000000000000000e-01" nType="0">
        <Node pos="l" depth="1" NCoef="0" IVar="9" Cut="5.5714287757873535e+00" cType="1" res="-1.3906402513384819e-02" rms="2.5842267274856567e-01" purity="1.0207969695329666e-01" nType="0">
          <Node pos="l" depth="2" NCoef="0" IVar="6" Cut="2.1428570747375488e+00" cType="1" res="-6.4540089806541800e-04" rms="2.3864033818244934e-01" purity="7.6277650892734528e-02" nType="0">
            <Node pos="l" depth="3" NCoef="0" IVar="-1" Cut="0.0000000000000000e+00" cType="1" res="-2.1883065998554230e-01" rms="1.6632884740829468e-01" purity="3.1269349157810211e-02" nType="-99"/>
            <Node pos="r" depth="3" NCoef="0" IVar="-1" Cut="0.0000000000000000e+00" cType="1" res="1.8006272614002228e-01" rms="3.2059237360954285e-01" purity="1.4846077561378479e-01" nType="-99"/>
          </Node>
          <Node pos="r" depth="2" NCoef="0" IVar="0" Cut="-2.4246364831924438e-01" cType="1" res="-7.9821750521659851e-02" rms="3.3232474327087402e-01" purity="2.3033174872398376e-01" nType="0">
            <Node pos="l" depth="3" NCoef="0" IVar="-1" Cut="0.0000000000000000e+00" cType="1" res="-1.8169815838336945e-01" rms="2.8427374362945557e-01" purity="1.4519056677818298e-01" nType="-99"/>
            <Node pos="r" depth="3" NCoef="0" IVar="-1" Cut="0.0000000000000000e+00" cType="1" res="-4.4398209452629089e-01" rms="3.7192299962043762e-01" purity="3.2341268658638000e-01" nType="-99"/>
          </Node>
        </Node>
        <Node pos="r" depth="1" NCoef="0" IVar="0" Cut="1.2699350714683533e-01" cType="1" res="1.4333735452964902e-03" rms="3.2203269004821777e-01" purity="5.4269945621490479e-01" nType="0">
          <Node pos="l" depth="2" NCoef="0" IVar="9" Cut="4.4285712242126465e+00" cType="1" res="8.0705117434263229e-03" rms="3.2672452926635742e-01" purity="3.4218066930770874e-01" nType="0">
            <Node pos="l" depth="3" NCoef="0" IVar="-1" Cut="0.0000000000000000e+00" cType="1" res="-2.6597297191619873e-01" rms="1.6560871899127960e-01" purity="2.7959149330854416e-02" nType="-99"/>
            <Node pos="r" depth="3" NCoef="0" IVar="-1" Cut="0.0000000000000000e+00" cType="1" res="7.2569884359836578e-02" rms="3.5443744063377380e-01" purity="4.1806492209434509e-01" nType="-99"/>
          </Node>
          <Node pos="r" depth="2" NCoef="0" IVar="0" Cut="1.3230450451374054e-01" cType="1" res="-5.8464962057769299e-03" rms="3.1664663553237915e-01" purity="7.6263618469238281e-01" nType="0">
            <Node pos="l" depth="3" NCoef="0" IVar="-1" Cut="0.0000000000000000e+00" cType="1" res="-4.1150495409965515e-01" rms="3.6360603570938110e-01" purity="5.1387643814086914e-01" nType="-99"/>
            <Node pos="r" depth="3" NCoef="0" IVar="-1" Cut="0.0000000000000000e+00" cType="1" res="-1.2516755610704422e-02" rms="3.1403335928916931e-01" purity="7.7297419309616089e-01" nType="-99"/>
          </Node>
        </Node>
      </Node>
    </BinaryTree>
    <BinaryTree type="DecisionTree" boostWeight="1.0000000000000000e+00" itree="14">
      <Node pos="s" depth="0" NCoef="0" IVar="0" Cut="7.2952173650264740e-02" cType="1" res="-6.7135493736714125e-04" rms="3.1529584527015686e-01" purity="5.0000000000000000e-01" nType="0">
        <Node pos="l" depth="1" NCoef="0" IVar="0" Cut="-1.1235758662223816e-01" cType="1" res="-6.3721793703734875e-03" rms="2.9807826876640320e-01" purity="2.3010087013244629e-01" nType="0">
          <Node pos="l" depth="2" NCoef="0" IVar="0" Cut="-8.2482773065567017e-01" cType="1" res="8.5620407480746508e-04" rms="2.8162986040115356e-01" purity="1.7103101313114166e-01" nType="0">
            <Node pos="l" depth="3" NCoef="0" IVar="-1" Cut="0.0000000000000000e+00" cType="1" res="-3.1342563033103943e-01" rms="1.9677661359310150e-01" purity="4.9358975142240524e-02" nType="-99"/>
            <Node pos="r" depth="3" NCoef="0" IVar="-1" Cut="0.0000000000000000e+00" cType="1" res="2.5086924433708191e-02" rms="2.8810897469520569e-01" purity="1.8240086734294891e-01" nType="-99"/>
          </Node>
          <Node pos="r" depth="2" NCoef="0" IVar="7" Cut="2.1904761791229248e+00" cType="1" res="-2.1184360608458519e-02" rms="3.2873025536537170e-01" purity="3.5114502906799316e-01" nType="0">
            <Node pos="l" depth="3" NCoef="0" IVar="-1" Cut="0.0000000000000000e+00" cType="1" res="-1.7517092823982239e-01" rms="3.1816393136978149e-01" purity="2.2150932252407074e-01" nType="-99"/>
            <Node pos="r" depth="3" NCoef="0" IVar="-1" Cut="0.0000000000000000e+00" cType="1" res="6.2370706349611282e-02" rms="3.5407325625419617e-01" purity="7.1041488647460938e-01" nType="-99"/>
          </Node>
        </Node>
        <Node pos="r" depth="1" NCoef="0" IVar="6" Cut="2.2857143878936768e+00" cType="1" res="3.4209808800369501e-03" rms="3.2703587412834167e-01" purity="6.9374704360961914e-01" nType="0">
          <Node pos="l" depth="2" NCoef="0" IVar="9" Cut="6.4285712242126465e+00" cType="1" res="1.7458425834774971e-02" rms="3.7114375829696655e-01" purity="3.6146578192710876e-01" nType="0">
            <Node pos="l" depth="3" NCoef="0" IVar="-1" Cut="0.0000000000000000e+00" cType="1" res="8.6492029950022697e-03" rms="3.4606930613517761e-01" purity="1.8832768499851227e-01" nType="-99"/>
            <Node pos="r" depth="3" NCoef="0" IVar="-1" Cut="0.0000000000000000e+00" cType="1" res="1.5298764407634735e-01" rms="4.1643345355987549e-01" purity="7.1965593099594116e-01" nType="-99"/>
          </Node>
          <Node pos="r" depth="2" NCoef="0" IVar="9" Cut="4.2857141494750977e+00" cType="1" res="-1.3733004452660680e-03" rms="3.1039416790008545e-01" purity="8.0723273754119873e-01" nType="0">
            <Node pos="l" depth="3" NCoef="0" IVar="-1" Cut="0.0000000000000000e+00" cType="1" res="2.0254136621952057e-01" rms="3.7839892506599426e-01" purity="2.1023125946521759e-01" nType="-99"/>
            <Node pos="r" depth="3" NCoef="0" IVar="-1" Cut="0.0000000000000000e+00" cType="1" res="-2.2943018004298210e-02" rms="3.0616220831871033e-01" purity="8.3904695510864258e-01" nType="-99"/>
          </Node>
        </Node>
      </Node>
    </BinaryTree>
    <BinaryTree type="DecisionTree" boostWeight="1.0000000000000000e+00" itree="15">
      <Node pos="s" depth="0" NCoef="0" IVar="9" Cut="9.2857141494750977e+00" cType="1" res="-2.7403904823586345e-04" rms="3.1446635723114014e-01" purity="5.0000000000000000e-01" nType="0">
        <Node pos="l" depth="1" NCoef="0" IVar="4" Cut="5.8336490392684937e-01" cType="1" res="-1.2924249749630690e-03" rms="3.2155233621597290e-01" purity="4.6940681338310242e-01" nType="0">
          <Node pos="l" depth="2" NCoef="0" IVar="10" Cut="9.8378570556640625e+02" cType="1" res="1.8420044798403978e-03" rms="3.1980848312377930e-01" purity="3.7876522541046143e-01" nType="0">
            <Node pos="l" depth="3" NCoef="0" IVar="-1" Cut="0.0000000000000000e+00" cType="1" res="4.5797782950103283e-03" rms="3.2001090049743652e-01" purity="3.6480122804641724e-01" nType="-99"/>
            <Node pos="r" depth="3" NCoef="0" IVar="-1" Cut="0.0000000000000000e+00" cType="1" res="1.8070626258850098e-01" rms="3.1210291385650635e-01" purity="7.9938977956771851e-01" nType="-99"/>
          </Node>
          <Node pos="r" depth="2" NCoef="0" IVar="2" Cut="3.5290414094924927e-01" cType="1" res="-7.6257018372416496e-03" rms="3.2495507597923279e-01" purity="6.5255284309387207e-01" nType="0">
            <Node pos="l" depth="3" NCoef="0" IVar="-1" Cut="0.0000000000000000e+00" cType="1" res="-8.0225899815559387e-02" rms="3.3033517003059387e-01" purity="6.3352185487747192e-01" nType="-99"/>
            <Node pos="r" depth="3" NCoef="0" IVar="-1" Cut="0.0000000000000000e+00" cType="1" res="3.0382087454199791e-02" rms="3.1510803103446960e-01" purity="6.8502879142761230e-01" nType="-99"/>
          </Node>
        </Node>
        <Node pos="r" depth="1" NCoef="0" IVar="1" Cut="1.1275692749023438e+02" cType="1" res="1.5231560915708542e-02" rms="1.7324413359165192e-01" purity="9.6580129861831665e-01" nType="0">
          <Node pos="l" depth="2" NCoef="0" IVar="2" Cut="-1.0323065519332886e+00" cType="1" res="2.7872439473867416e-02" rms="1.7364875972270966e-01" purity="9.6909010410308838e-01" nType="0">
            <Node pos="l" depth="3" NCoef="0" IVar="-1" Cut="0.0000000000000000e+00" cType="1" res="5.2745854854583740e-01" rms="1.8164180219173431e-01" purity="9.8056155443191528e-01" nType="-99"/>
            <Node pos="r" depth="3" NCoef="0" IVar="-1" Cut="0.0000000000000000e+00" cType="1" res="2.6179486513137817e-01" rms="1.7102612555027008e-01" purity="9.6619409322738647e-01" nType="-99"/>
          </Node>
          <Node pos="r" depth="2" NCoef="0" IVar="0" Cut="1.8150939047336578e-01" cType="1" res="-1.7585497116670012e-03" rms="1.7123502492904663e-01" purity="9.6138089895248413e-01" nType="0">
            <Node pos="l" depth="3" NCoef="0" IVar="-1" Cut="0.0000000000000000e+00" cType="1" res="-2.1668310463428497e-01" rms="2.1018478274345398e-01" purity="9.3918246030807495e-01" nType="-99"/>
            <Node pos="r" depth="3" NCoef="0" IVar="-1" Cut="0.0000000000000000e+00" cType="1" res="3.7664371728897095e-01" rms="8.7017655372619629e-02" purity="9.9291783571243286e-01" nType="-99"/>
          </Node>
        </Node>
      </Node>
    </BinaryTree>
    <BinaryTree type="DecisionTree" boostWeight="1.0000000000000000e+00" itree="16">
      <Node pos="s" depth="0" NCoef="0" IVar="3" Cut="2.7939215302467346e-01" cType="1" res="3.4701565164141357e-04" rms="3.1396552920341492e-01" purity="5.0000000000000000e-01" nType="0">
        <Node pos="l" depth="1" NCoef="0" IVar="-1" Cut="0.0000000000000000e+00" cType="1" res="-3.5425212979316711e-01" rms="2.3069052398204803e-01" purity="8.0152668058872223e-02" nType="-99"/>
        <Node pos="r" depth="1" NCoef="0" IVar="5" Cut="3.4574603271484375e+02" cType="1" res="6.9452874595299363e-04" rms="3.1452819705009460e-01" purity="5.0341212749481201e-01" nType="0">
          <Node pos="l" depth="2" NCoef="0" IVar="5" Cut="2.6493746948242188e+02" cType="1" res="3.9753778837621212e-03" rms="3.2050272822380066e-01" purity="4.4074791669845581e-01" nType="0">
            <Node pos="l" depth="3" NCoef="0" IVar="-1" Cut="0.0000000000000000e+00" cType="1" res="-5.6131780147552490e-03" rms="3.2197749614715576e-01" purity="4.2213982343673706e-01" nType="-99"/>
            <Node pos="r" depth="3" NCoef="0" IVar="-1" Cut="0.0000000000000000e+00" cType="1" res="8.6485765874385834e-02" rms="3.1684476137161255e-01" purity="4.8282456398010254e-01" nType="-99"/>
          </Node>
          <Node pos="r" depth="2" NCoef="0" IVar="4" Cut="2.6720798015594482e-01" cType="1" res="-6.5279011614620686e-03" rms="3.0083224177360535e-01" purity="6.4136046171188354e-01" nType="0">
            <Node pos="l" depth="3" NCoef="0" IVar="-1" Cut="0.0000000000000000e+00" cType="1" res="4.6276286244392395e-02" rms="3.1419223546981812e-01" purity="2.4497567117214203e-01" nType="-99"/>
            <Node pos="r" depth="3" NCoef="0" IVar="-1" Cut="0.0000000000000000e+00" cType="1" res="-7.3070108890533447e-02" rms="2.9647693037986755e-01" purity="7.6292741298675537e-01" nType="-99"/>
          </Node>
        </Node>
      </Node>
    </BinaryTree>
    <BinaryTree type="DecisionTree" boostWeight="1.0000000000000000e+00" itree="17">
      <Node pos="s" depth="0" NCoef="0" IVar="5" Cut="1.9444126892089844e+02" cType="1" res="-1.7122746385211940e-06" rms="3.1365141272544861e-01" purity="5.0000000000000000e-01" nType="0">
        <Node pos="l" depth="1" NCoef="0" IVar="6" Cut="3.0476191043853760e+00" cType="1" res="6.5834312699735165e-03" rms="3.3052051067352295e-01" purity="4.1791960597038269e-01" nType="0">
          <Node pos="l" depth="2" NCoef="0" IVar="3" Cut="5.5646860599517822e-01" cType="1" res="6.4728443976491690e-04" rms="3.3298587799072266e-01" purity="3.2340854406356812e-01" nType="0">
            <Node pos="l" depth="3" NCoef="0" IVar="-1" Cut="0.0000000000000000e+00" cType="1" res="9.0081147849559784e-02" rms="3.1857052445411682e-01" purity="2.9412683844566345e-01" nType="-99"/>
            <Node pos="r" depth="3" NCoef="0" IVar="-1" Cut="0.0000000000000000e+00" cType="1" res="-7.0895090699195862e-02" rms="3.4588053822517395e-01" purity="3.5227099061012268e-01" nType="-99"/>
          </Node>
          <Node pos="r" depth="2" NCoef="0" IVar="9" Cut="6.1428570747375488e+00" cType="1" res="2.9113886877894402e-02" rms="3.1999042630195618e-01" purity="7.7663332223892212e-01" nType="0">
            <Node pos="l" depth="3" NCoef="0" IVar="-1" Cut="0.0000000000000000e+00" cType="1" res="3.1146404147148132e-01" rms="3.9798873662948608e-01" purity="5.2039802074432373e-01" nType="-99"/>
            <Node pos="r" depth="3" NCoef="0" IVar="-1" Cut="0.0000000000000000e+00" cType="1" res="7.1371062658727169e-03" rms="2.7607882022857666e-01" purity="8.8424569368362427e-01" nType="-99"/>
          </Node>
        </Node>
        <Node pos="r" depth="1" NCoef="0" IVar="5" Cut="3.7038110351562500e+02" cType="1" res="-2.2048724349588156e-03" rms="3.0776980519294739e-01" purity="5.2746123075485229e-01" nType="0">
          <Node pos="l" depth="2" NCoef="0" IVar="5" Cut="2.1958761596679688e+02" cType="1" res="-6.1874114908277988e-03" rms="3.1393739581108093e-01" purity="4.5448213815689087e-01" nType="0">
            <Node pos="l" depth="3" NCoef="0" IVar="-1" Cut="0.0000000000000000e+00" cType="1" res="-1.1887520551681519e-01" rms="3.1800958514213562e-01" purity="4.0690577030181885e-01" nType="-99"/>
            <Node pos="r" depth="3" NCoef="0" IVar="-1" Cut="0.0000000000000000e+00" cType="1" res="-1.6121366992592812e-02" rms="3.1301468610763550e-01" purity="4.6394687891006470e-01" nType="-99"/>
          </Node>
          <Node pos="r" depth="2" NCoef="0" IVar="6" Cut="3.0476191043853760e+00" cType="1" res="5.1472205668687820e-03" rms="2.9590579867362976e-01" purity="6.6218662261962891e-01" nType="0">
            <Node pos="l" depth="3" NCoef="0" IVar="-1" Cut="0.0000000000000000e+00" cType="1" res="8.5016556084156036e-02" rms="3.2606446743011475e-01" purity="4.6691811084747314e-01" nType="-99"/>
            <Node pos="r" depth="3" NCoef="0" IVar="-1" Cut="0.0000000000000000e+00" cType="1" res="-7.4420809745788574e-02" rms="2.5496792793273926e-01" purity="8.9352738857269287e-01" nType="-99"/>
          </Node>
        </Node>
      </Node>
    </BinaryTree>
    <BinaryTree type="DecisionTree" boostWeight="1.0000000000000000e+00" itree="18">
      <Node pos="s" depth="0" NCoef="0" IVar="4" Cut="3.1411957740783691e-01" cType="1" res="-3.9571637898916379e-05" rms="3.1300604343414307e-01" purity="5.0000000000000000e-01" nType="0">
        <Node pos="l" depth="1" NCoef="0" IVar="3" Cut="7.4504572153091431e-01" cType="1" res="-9.0552838519215584e-03" rms="2.9472693800926208e-01" purity="1.9580817222595215e-01" nType="0">
          <Node pos="l" depth="2" NCoef="0" IVar="0" Cut="1.7614905536174774e-01" cType="1" res="1.3119453797116876e-03" rms="2.8931853175163269e-01" purity="1.8327584862709045e-01" nType="0">
            <Node pos="l" depth="3" NCoef="0" IVar="-1" Cut="0.0000000000000000e+00" cType="1" res="-2.7243690565228462e-02" rms="2.8140550851821899e-01" purity="1.6012294590473175e-01" nType="-99"/>
            <Node pos="r" depth="3" NCoef="0" IVar="-1" Cut="0.0000000000000000e+00" cType="1" res="2.9936200380325317e-01" rms="3.8478666543960571e-01" purity="5.4758191108703613e-01" nType="-99"/>
          </Node>
          <Node pos="r" depth="2" NCoef="0" IVar="0" Cut="-5.0881218910217285e-01" cType="1" res="-4.2271908372640610e-02" rms="3.0909052491188049e-01" purity="2.3596176505088806e-01" nType="0">
            <Node pos="l" depth="3" NCoef="0" IVar="-1" Cut="0.0000000000000000e+00" cType="1" res="-3.2346285879611969e-02" rms="2.8257882595062256e-01" purity="1.3033175468444824e-01" nType="-99"/>
            <Node pos="r" depth="3" NCoef="0" IVar="-1" Cut="0.0000000000000000e+00" cType="1" res="-2.6836094260215759e-01" rms="3.1652930378913879e-01" purity="2.7156549692153931e-01" nType="-99"/>
          </Node>
        </Node>
        <Node pos="r" depth="1" NCoef="0" IVar="10" Cut="2.9609838867187500e+02" cType="1" res="2.4522524327039719e-03" rms="3.1782767176628113e-01" purity="5.8407461643218994e-01" nType="0">
          <Node pos="l" depth="2" NCoef="0" IVar="9" Cut="6.4285712242126465e+00" cType="1" res="-2.2938603535294533e-02" rms="3.1832706928253174e-01" purity="2.2217245399951935e-01" nType="0">
            <Node pos="l" depth="3" NCoef="0" IVar="-1" Cut="0.0000000000000000e+00" cType="1" res="-8.0643072724342346e-02" rms="3.0446594953536987e-01" purity="1.7539072036743164e-01" nType="-99"/>
            <Node pos="r" depth="3" NCoef="0" IVar="-1" Cut="0.0000000000000000e+00" cType="1" res="-4.2975521087646484e-01" rms="4.1711691021919250e-01" purity="6.5668201446533203e-01" nType="-99"/>
          </Node>
          <Node pos="r" depth="2" NCoef="0" IVar="8" Cut="2.3809523880481720e-01" cType="1" res="4.8924195580184460e-03" rms="3.1767275929450989e-01" purity="6.1885493993759155e-01" nType="0">
            <Node pos="l" depth="3" NCoef="0" IVar="-1" Cut="0.0000000000000000e+00" cType="1" res="-8.6691133677959442e-02" rms="3.3394959568977356e-01" purity="5.3735548257827759e-01" nType="-99"/>
            <Node pos="r" depth="3" NCoef="0" IVar="-1" Cut="0.0000000000000000e+00" cType="1" res="3.6106079816818237e-02" rms="3.1622102856636047e-01" purity="6.2559133768081665e-01" nType="-99"/>
          </Node>
        </Node>
      </Node>
    </BinaryTree>
    <BinaryTree type="DecisionTree" boostWeight="1.0000000000000000e+00" itree="19">
      <Node pos="s" depth="0" NCoef="0" IVar="3" Cut="5.1221895217895508e-01" cType="1" res="-3.3517018891870975e-05" rms="3.1222182512283325e-01" purity="5.0000000000000000e-01" nType="0">
        <Node pos="l" depth="1" NCoef="0" IVar="5" Cut="5.6327697753906250e+02" cType="1" res="-7.0635392330586910e-03" rms="3.1243631243705750e-01" purity="4.1997230052947998e-01" nType="0">
          <Node pos="l" depth="2" NCoef="0" IVar="2" Cut="1.3004937171936035e+00" cType="1" res="-4.5412336476147175e-03" rms="3.1088042259216309e-01" purity="4.1086310148239136e-01" nType="0">
            <Node pos="l" depth="3" NCoef="0" IVar="-1" Cut="0.0000000000000000e+00" cType="1" res="-7.0437639951705933e-03" rms="3.1080788373947144e-01" purity="4.0711820125579834e-01" nType="-99"/>
            <Node pos="r" depth="3" NCoef="0" IVar="-1" Cut="0.0000000000000000e+00" cType="1" res="-1.5163533389568329e-01" rms="3.1039509177207947e-01" purity="4.3747487664222717e-01" nType="-99"/>
          </Node>
          <Node pos="r" depth="2" NCoef="0" IVar="-1" Cut="0.0000000000000000e+00" cType="1" res="-4.2401054501533508e-01" rms="3.4362855553627014e-01" purity="6.5272498130798340e-01" nType="-99"/>
        </Node>
        <Node pos="r" depth="1" NCoef="0" IVar="3" Cut="5.3444331884384155e-01" cType="1" res="3.3096973784267902e-03" rms="3.1206420063972473e-01" purity="5.3805816173553467e-01" nType="0">
          <Node pos="l" depth="2" NCoef="0" IVar="3" Cut="5.1543909311294556e-01" cType="1" res="2.0122667774558067e-02" rms="3.1338107585906982e-01" purity="5.4153454303741455e-01" nType="0">
            <Node pos="l" depth="3" NCoef="0" IVar="-1" Cut="0.0000000000000000e+00" cType="1" res="-1.7088565230369568e-01" rms="3.6275193095207214e-01" purity="4.3721973896026611e-01" nType="-99"/>
            <Node pos="r" depth="3" NCoef="0" IVar="-1" Cut="0.0000000000000000e+00" cType="1" res="1.5538710355758667e-01" rms="3.0370864272117615e-01" purity="5.5871492624282837e-01" nType="-99"/>
          </Node>
          <Node pos="r" depth="2" NCoef="0" IVar="10" Cut="2.9609838867187500e+02" cType="1" res="2.0130716729909182e-03" rms="3.1192478537559509e-01" purity="5.3779006004333496e-01" nType="0">
            <Node pos="l" depth="3" NCoef="0" IVar="-1" Cut="0.0000000000000000e+00" cType="1" res="9.3784242868423462e-02" rms="3.0890229344367981e-01" purity="2.0526874065399170e-01" nType="-99"/>
            <Node pos="r" depth="3" NCoef="0" IVar="-1" Cut="0.0000000000000000e+00" cType="1" res="-3.9048181497491896e-04" rms="3.1235691905021667e-01" purity="5.9115803241729736e-01" nType="-99"/>
          </Node>
        </Node>
      </Node>
    </BinaryTree>
    <BinaryTree type="DecisionTree" boostWeight="1.0000000000000000e+00" itree="20">
      <Node pos="s" depth="0" NCoef="0" IVar="2" Cut="2.2395353317260742e+00" cType="1" res="1.6876121662789956e-05" rms="3.1189459562301636e-01" purity="5.0000000000000000e-01" nType="0">
        <Node pos="l" depth="1" NCoef="0" IVar="7" Cut="3.3333332538604736e+00" cType="1" res="-3.3910895581357181e-04" rms="3.1186091899871826e-01" purity="4.9879211187362671e-01" nType="0">
          <Node pos="l" depth="2" NCoef="0" IVar="6" Cut="4.1904764175415039e+00" cType="1" res="-1.6551513690501451e-03" rms="3.1878986954689026e-01" purity="4.5739704370498657e-01" nType="0">
            <Node pos="l" depth="3" NCoef="0" IVar="-1" Cut="0.0000000000000000e+00" cType="1" res="-1.5285937115550041e-02" rms="3.2413896918296814e-01" purity="4.2578643560409546e-01" nType="-99"/>
            <Node pos="r" depth="3" NCoef="0" IVar="-1" Cut="0.0000000000000000e+00" cType="1" res="1.5582600235939026e-01" rms="2.2360238432884216e-01" purity="9.2857140302658081e-01" nType="-99"/>
          </Node>
          <Node pos="r" depth="2" NCoef="0" IVar="5" Cut="2.9925714111328125e+02" cType="1" res="1.3025234453380108e-02" rms="2.2953559458255768e-01" purity="9.1915702819824219e-01" nType="0">
            <Node pos="l" depth="3" NCoef="0" IVar="-1" Cut="0.0000000000000000e+00" cType="1" res="2.6011446118354797e-01" rms="2.2858884930610657e-01" purity="9.0399384498596191e-01" nType="-99"/>
            <Node pos="r" depth="3" NCoef="0" IVar="-1" Cut="0.0000000000000000e+00" cType="1" res="4.9756385385990143e-02" rms="2.2920595109462738e-01" purity="9.2355692386627197e-01" nType="-99"/>
          </Node>
        </Node>
        <Node pos="r" depth="1" NCoef="0" IVar="-1" Cut="0.0000000000000000e+00" cType="1" res="2.9057329893112183e-01" rms="3.1228008866310120e-01" purity="6.8396228551864624e-01" nType="-99"/>
      </Node>
    </BinaryTree>
    <BinaryTree type="DecisionTree" boostWeight="1.0000000000000000e+00" itree="21">
      <Node pos="s" depth="0" NCoef="0" IVar="2" Cut="-1.0471104383468628e+00" cType="1" res="1.9020379113499075e-04" rms="3.1164351105690002e-01" purity="5.0000000000000000e-01" nType="0">
        <Node pos="l" depth="1" NCoef="0" IVar="3" Cut="8.2945686578750610e-01" cType="1" res="8.0224806442856789e-03" rms="3.0466994643211365e-01" purity="5.5315870046615601e-01" nType="0">
          <Node pos="l" depth="2" NCoef="0" IVar="9" Cut="6.0952382087707520e+00" cType="1" res="1.0668527334928513e-02" rms="3.0493113398551941e-01" purity="5.5435669422149658e-01" nType="0">
            <Node pos="l" depth="3" NCoef="0" IVar="-1" Cut="0.0000000000000000e+00" cType="1" res="1.2012754380702972e-01" rms="3.2614162564277649e-01" purity="2.7390536665916443e-01" nType="-99"/>
            <Node pos="r" depth="3" NCoef="0" IVar="-1" Cut="0.0000000000000000e+00" cType="1" res="-1.3343956321477890e-02" rms="2.7975791692733765e-01" purity="8.5626715421676636e-01" nType="-99"/>
          </Node>
          <Node pos="r" depth="2" NCoef="0" IVar="-1" Cut="0.0000000000000000e+00" cType="1" res="-2.0880442857742310e-01" rms="2.9623168706893921e-01" purity="5.3214287757873535e-01" nType="-99"/>
        </Node>
        <Node pos="r" depth="1" NCoef="0" IVar="1" Cut="6.2685310363769531e+01" cType="1" res="-1.2989268871024251e-03" rms="3.1292963027954102e-01" purity="4.8989307880401611e-01" nType="0">
          <Node pos="l" depth="2" NCoef="0" IVar="1" Cut="4.1778633117675781e+01" cType="1" res="-1.1423096992075443e-02" rms="3.1363344192504883e-01" purity="4.3654903769493103e-01" nType="0">
            <Node pos="l" depth="3" NCoef="0" IVar="-1" Cut="0.0000000000000000e+00" cType="1" res="-1.8278481066226959e-01" rms="2.9452478885650635e-01" purity="3.8204747438430786e-01" nType="-99"/>
            <Node pos="r" depth="3" NCoef="0" IVar="-1" Cut="0.0000000000000000e+00" cType="1" res="-1.2865085154771805e-02" rms="3.2212141156196594e-01" purity="4.6306544542312622e-01" nType="-99"/>
          </Node>
          <Node pos="r" depth="2" NCoef="0" IVar="2" Cut="2.1389842033386230e+00" cType="1" res="1.6611830797046423e-03" rms="3.1266161799430847e-01" purity="5.0548982620239258e-01" nType="0">
            <Node pos="l" depth="3" NCoef="0" IVar="-1" Cut="0.0000000000000000e+00" cType="1" res="5.0007868558168411e-03" rms="3.1272223591804504e-01" purity="5.0289738178253174e-01" nType="-99"/>
            <Node pos="r" depth="3" NCoef="0" IVar="-1" Cut="0.0000000000000000e+00" cType="1" res="3.5621413588523865e-01" rms="3.0066883563995361e-01" purity="7.2289156913757324e-01" nType="-99"/>
          </Node>
        </Node>
      </Node>
    </BinaryTree>
    <BinaryTree type="DecisionTree" boostWeight="1.0000000000000000e+00" itree="22">
      <Node pos="s" depth="0" NCoef="0" IVar="3" Cut="7.9161107540130615e-01" cType="1" res="-5.8243116654921323e-05" rms="3.1134209036827087e-01" purity="5.0000000000000000e-01" nType="0">
        <Node pos="l" depth="1" NCoef="0" IVar="3" Cut="4.1463297605514526e-01" cType="1" res="-1.2157853925600648e-03" rms="3.1179255247116089e-01" purity="4.9993911385536194e-01" nType="0">
          <Node pos="l" depth="2" NCoef="0" IVar="3" Cut="3.7509226799011230e-01" cType="1" res="9.2191705480217934e-03" rms="2.9919305443763733e-01" purity="3.5294809937477112e-01" nType="0">
            <Node pos="l" depth="3" NCoef="0" IVar="-1" Cut="0.0000000000000000e+00" cType="1" res="-2.6103015989065170e-02" rms="2.9589423537254333e-01" purity="2.9527151584625244e-01" nType="-99"/>
            <Node pos="r" depth="3" NCoef="0" IVar="-1" Cut="0.0000000000000000e+00" cType="1" res="1.5092834830284119e-01" rms="3.0261388421058655e-01" purity="4.2974978685379028e-01" nType="-99"/>
          </Node>
          <Node pos="r" depth="2" NCoef="0" IVar="3" Cut="6.1207938194274902e-01" cType="1" res="-3.0219296459108591e-03" rms="3.1388682126998901e-01" purity="5.2538114786148071e-01" nType="0">
            <Node pos="l" depth="3" NCoef="0" IVar="-1" Cut="0.0000000000000000e+00" cType="1" res="-4.0579225867986679e-02" rms="3.1555137038230896e-01" purity="5.0218957662582397e-01" nType="-99"/>
            <Node pos="r" depth="3" NCoef="0" IVar="-1" Cut="0.0000000000000000e+00" cType="1" res="1.4271829277276993e-02" rms="3.1163355708122253e-01" purity="5.5537873506546021e-01" nType="-99"/>
          </Node>
        </Node>
        <Node pos="r" depth="1" NCoef="0" IVar="5" Cut="5.9982653808593750e+02" cType="1" res="8.7802624329924583e-03" rms="3.0773729085922241e-01" purity="5.0046497583389282e-01" nType="0">
          <Node pos="l" depth="2" NCoef="0" IVar="1" Cut="1.4378558349609375e+02" cType="1" res="4.1171666234731674e-03" rms="3.0924499034881592e-01" purity="4.7265625000000000e-01" nType="0">
            <Node pos="l" depth="3" NCoef="0" IVar="-1" Cut="0.0000000000000000e+00" cType="1" res="-2.1250028163194656e-02" rms="3.1253257393836975e-01" purity="4.5313420891761780e-01" nType="-99"/>
            <Node pos="r" depth="3" NCoef="0" IVar="-1" Cut="0.0000000000000000e+00" cType="1" res="1.4405892789363861e-01" rms="2.9876953363418579e-01" purity="5.2715301513671875e-01" nType="-99"/>
          </Node>
          <Node pos="r" depth="2" NCoef="0" IVar="-1" Cut="0.0000000000000000e+00" cType="1" res="4.1344785690307617e-01" rms="2.8505513072013855e-01" purity="8.1300812959671021e-01" nType="-99"/>
        </Node>
      </Node>
    </BinaryTree>
    <BinaryTree type="DecisionTree" boostWeight="1.0000000000000000e+00" itree="23">
      <Node pos="s" depth="0" NCoef="0" IVar="9" Cut="5.7142858505249023e+00" cType="1" res="1.4831488442723639e-05" rms="3.1103804707527161e-01" purity="5.0000000000000000e-01" nType="0">
        <Node pos="l" depth="1" NCoef="0" IVar="7" Cut="2.2857143878936768e+00" cType="1" res="-4.1460730135440826e-03" rms="2.8025922179222107e-01" purity="1.2991869449615479e-01" nType="0">
          <Node pos="l" depth="2" NCoef="0" IVar="0" Cut="1.4757926575839520e-02" cType="1" res="4.9027930945158005e-03" rms="2.4764263629913330e-01" purity="8.6575970053672791e-02" nType="0">
            <Node pos="l" depth="3" NCoef="0" IVar="-1" Cut="0.0000000000000000e+00" cType="1" res="-1.0591570287942886e-01" rms="1.7645330727100372e-01" purity="3.5338032990694046e-02" nType="-99"/>
            <Node pos="r" depth="3" NCoef="0" IVar="-1" Cut="0.0000000000000000e+00" cType="1" res="1.1969415098428726e-01" rms="3.1848841905593872e-01" purity="1.5545891225337982e-01" nType="-99"/>
          </Node>
          <Node pos="r" depth="2" NCoef="0" IVar="0" Cut="-6.0888487100601196e-01" cType="1" res="-5.7311322540044785e-02" rms="4.2000174522399902e-01" purity="3.8457238674163818e-01" nType="0">
            <Node pos="l" depth="3" NCoef="0" IVar="-1" Cut="0.0000000000000000e+00" cType="1" res="4.3738055229187012e-01" rms="3.9417999982833862e-01" purity="2.3195084929466248e-01" nType="-99"/>
            <Node pos="r" depth="3" NCoef="0" IVar="-1" Cut="0.0000000000000000e+00" cType="1" res="-3.0118039250373840e-01" rms="4.1917920112609863e-01" purity="4.1851726174354553e-01" nType="-99"/>
          </Node>
        </Node>
        <Node pos="r" depth="1" NCoef="0" IVar="0" Cut="-6.7695194482803345e-01" cType="1" res="2.5484515354037285e-03" rms="3.2834362983703613e-01" purity="7.2534650564193726e-01" nType="0">
          <Node pos="l" depth="2" NCoef="0" IVar="7" Cut="2.2380952835083008e+00" cType="1" res="-2.6588747277855873e-02" rms="3.3321854472160339e-01" purity="2.1682243049144745e-01" nType="0">
            <Node pos="l" depth="3" NCoef="0" IVar="-1" Cut="0.0000000000000000e+00" cType="1" res="-6.4597234129905701e-02" rms="2.9695802927017212e-01" purity="1.4164648950099945e-01" nType="-99"/>
            <Node pos="r" depth="3" NCoef="0" IVar="-1" Cut="0.0000000000000000e+00" cType="1" res="-2.6539999246597290e-01" rms="4.3039017915725708e-01" purity="4.7131147980690002e-01" nType="-99"/>
          </Node>
          <Node pos="r" depth="2" NCoef="0" IVar="11" Cut="1.7195752263069153e-01" cType="1" res="4.1781850159168243e-03" rms="3.2799237966537476e-01" purity="7.5378984212875366e-01" nType="0">
            <Node pos="l" depth="3" NCoef="0" IVar="-1" Cut="0.0000000000000000e+00" cType="1" res="8.6005017161369324e-02" rms="3.6909267306327820e-01" purity="6.2066155672073364e-01" nType="-99"/>
            <Node pos="r" depth="3" NCoef="0" IVar="-1" Cut="0.0000000000000000e+00" cType="1" res="4.6491483226418495e-03" rms="3.1943309307098389e-01" purity="7.7922362089157104e-01" nType="-99"/>
          </Node>
        </Node>
      </Node>
    </BinaryTree>
    <BinaryTree type="DecisionTree" boostWeight="1.0000000000000000e+00" itree="24">
      <Node pos="s" depth="0" NCoef="0" IVar="0" Cut="1.2699350714683533e-01" cType="1" res="-4.5019367826171219e-04" rms="3.0979827046394348e-01" purity="5.0000000000000000e-01" nType="0">
        <Node pos="l" depth="1" NCoef="0" IVar="6" Cut="3.1428570747375488e+00" cType="1" res="3.9740325883030891e-03" rms="3.0742919445037842e-01" purity="3.0118423700332642e-01" nType="0">
          <Node pos="l" depth="2" NCoef="0" IVar="9" Cut="7.4285712242126465e+00" cType="1" res="9.1826738789677620e-03" rms="2.9773694276809692e-01" purity="2.0243693888187408e-01" nType="0">
            <Node pos="l" depth="3" NCoef="0" IVar="-1" Cut="0.0000000000000000e+00" cType="1" res="8.4487080574035645e-02" rms="2.8783655166625977e-01" purity="1.4896917343139648e-01" nType="-99"/>
            <Node pos="r" depth="3" NCoef="0" IVar="-1" Cut="0.0000000000000000e+00" cType="1" res="-1.0742264240980148e-01" rms="3.7961590290069580e-01" purity="7.2592592239379883e-01" nType="-99"/>
          </Node>
          <Node pos="r" depth="2" NCoef="0" IVar="0" Cut="-3.9141753315925598e-01" cType="1" res="-1.7176317051053047e-02" rms="3.4317991137504578e-01" purity="7.0216029882431030e-01" nType="0">
            <Node pos="l" depth="3" NCoef="0" IVar="-1" Cut="0.0000000000000000e+00" cType="1" res="8.8246449828147888e-02" rms="3.9488977193832397e-01" purity="4.5755860209465027e-01" nType="-99"/>
            <Node pos="r" depth="3" NCoef="0" IVar="-1" Cut="0.0000000000000000e+00" cType="1" res="-1.3506917655467987e-01" rms="3.3071017265319824e-01" purity="7.5311553478240967e-01" nType="-99"/>
          </Node>
        </Node>
        <Node pos="r" depth="1" NCoef="0" IVar="6" Cut="3.0476191043853760e+00" cType="1" res="-6.0494844801723957e-03" rms="3.1268110871315002e-01" purity="7.5162076950073242e-01" nType="0">
          <Node pos="l" depth="2" NCoef="0" IVar="9" Cut="7.1428570747375488e+00" cType="1" res="-2.0251655951142311e-02" rms="3.6226162314414978e-01" purity="6.2195640802383423e-01" nType="0">
            <Node pos="l" depth="3" NCoef="0" IVar="-1" Cut="0.0000000000000000e+00" cType="1" res="-9.9731199443340302e-02" rms="3.9620551466941833e-01" purity="4.9496540427207947e-01" nType="-99"/>
            <Node pos="r" depth="3" NCoef="0" IVar="-1" Cut="0.0000000000000000e+00" cType="1" res="1.4443789841607213e-03" rms="2.6725104451179504e-01" purity="9.1401529312133789e-01" nType="-99"/>
          </Node>
          <Node pos="r" depth="2" NCoef="0" IVar="4" Cut="3.5313063859939575e-01" cType="1" res="1.2867119163274765e-02" rms="2.2928269207477570e-01" purity="9.2432737350463867e-01" nType="0">
            <Node pos="l" depth="3" NCoef="0" IVar="-1" Cut="0.0000000000000000e+00" cType="1" res="3.1757625937461853e-01" rms="3.0733236670494080e-01" purity="8.5157424211502075e-01" nType="-99"/>
            <Node pos="r" depth="3" NCoef="0" IVar="-1" Cut="0.0000000000000000e+00" cType="1" res="9.0054519474506378e-02" rms="2.2356320917606354e-01" purity="9.2849779129028320e-01" nType="-99"/>
          </Node>
        </Node>
      </Node>
    </BinaryTree>
    <BinaryTree type="DecisionTree" boostWeight="1.0000000000000000e+00" itree="25">
      <Node pos="s" depth="0" NCoef="0" IVar="11" Cut="1.2896814942359924e-01" cType="1" res="9.8993950814474374e-05" rms="3.0900269746780396e-01" purity="5.0000000000000000e-01" nType="0">
        <Node pos="l" depth="1" NCoef="0" IVar="0" Cut="1.7650122940540314e-01" cType="1" res="-1.1844836175441742e-02" rms="2.8146174550056458e-01" purity="2.8822183609008789e-01" nType="0">
          <Node pos="l" depth="2" NCoef="0" IVar="0" Cut="2.3644864559173584e-02" cType="1" res="-5.5475467815995216e-03" rms="2.6823583245277405e-01" purity="2.1888014674186707e-01" nType="0">
            <Node pos="l" depth="3" NCoef="0" IVar="-1" Cut="0.0000000000000000e+00" cType="1" res="-2.2516505420207977e-01" rms="1.9015328586101532e-01" purity="7.3805205523967743e-02" nType="-99"/>
            <Node pos="r" depth="3" NCoef="0" IVar="-1" Cut="0.0000000000000000e+00" cType="1" res="5.9521853923797607e-02" rms="3.2958966493606567e-01" purity="3.6984577775001526e-01" nType="-99"/>
          </Node>
          <Node pos="r" depth="2" NCoef="0" IVar="7" Cut="2.1428570747375488e+00" cType="1" res="-4.1449859738349915e-02" rms="3.3516708016395569e-01" purity="6.1421316862106323e-01" nType="0">
            <Node pos="l" depth="3" NCoef="0" IVar="-1" Cut="0.0000000000000000e+00" cType="1" res="-2.9350674152374268e-01" rms="3.8137400150299072e-01" purity="4.1806450486183167e-01" nType="-99"/>
            <Node pos="r" depth="3" NCoef="0" IVar="-1" Cut="0.0000000000000000e+00" cType="1" res="2.5212513282895088e-02" rms="2.5720438361167908e-01" purity="8.6589401960372925e-01" nType="-99"/>
          </Node>
        </Node>
        <Node pos="r" depth="1" NCoef="0" IVar="1" Cut="8.2289970397949219e+01" cType="1" res="1.7424254911020398e-03" rms="3.1256669759750366e-01" purity="5.2913999557495117e-01" nType="0">
          <Node pos="l" depth="2" NCoef="0" IVar="0" Cut="-6.8362647294998169e-01" cType="1" res="7.5192181393504143e-03" rms="3.0925393104553223e-01" purity="5.0217294692993164e-01" nType="0">
            <Node pos="l" depth="3" NCoef="0" IVar="-1" Cut="0.0000000000000000e+00" cType="1" res="-1.2755727767944336e-01" rms="2.2778379917144775e-01" purity="7.4706107378005981e-02" nType="-99"/>
            <Node pos="r" depth="3" NCoef="0" IVar="-1" Cut="0.0000000000000000e+00" cType="1" res="5.3949009627103806e-02" rms="3.1859695911407471e-01" purity="5.6011927127838135e-01" nType="-99"/>
          </Node>
          <Node pos="r" depth="2" NCoef="0" IVar="1" Cut="1.3714128112792969e+02" cType="1" res="-1.8985624192282557e-03" rms="3.1458222866058350e-01" purity="5.4613673686981201e-01" nType="0">
            <Node pos="l" depth="3" NCoef="0" IVar="-1" Cut="0.0000000000000000e+00" cType="1" res="1.3570241630077362e-02" rms="3.1534540653228760e-01" purity="5.3896546363830566e-01" nType="-99"/>
            <Node pos="r" depth="3" NCoef="0" IVar="-1" Cut="0.0000000000000000e+00" cType="1" res="-3.8584288209676743e-02" rms="3.1358513236045837e-01" purity="5.5470657348632812e-01" nType="-99"/>
          </Node>
        </Node>
      </Node>
    </BinaryTree>
    <BinaryTree type="DecisionTree" boostWeight="1.0000000000000000e+00" itree="26">
      <Node pos="s" depth="0" NCoef="0" IVar="7" Cut="2.3333332538604736e+00" cType="1" res="-1.5461099974345416e-04" rms="3.0849650502204895e-01" purity="5.0000000000000000e-01" nType="0">
        <Node pos="l" depth="1" NCoef="0" IVar="6" Cut="4.1904764175415039e+00" cType="1" res="-2.2610451560467482e-03" rms="3.1902498006820679e-01" purity="3.3963534235954285e-01" nType="0">
          <Node pos="l" depth="2" NCoef="0" IVar="0" Cut="1.7614905536174774e-01" cType="1" res="-1.4389527495950460e-03" rms="3.1966665387153625e-01" purity="3.2279238104820251e-01" nType="0">
            <Node pos="l" depth="3" NCoef="0" IVar="-1" Cut="0.0000000000000000e+00" cType="1" res="-1.8847620114684105e-02" rms="3.1165501475334167e-01" purity="2.5407138466835022e-01" nType="-99"/>
            <Node pos="r" depth="3" NCoef="0" IVar="-1" Cut="0.0000000000000000e+00" cType="1" res="3.6038260906934738e-02" rms="3.5782012343406677e-01" purity="6.7573130130767822e-01" nType="-99"/>
          </Node>
          <Node pos="r" depth="2" NCoef="0" IVar="8" Cut="1.1428571939468384e+00" cType="1" res="-2.7382405474781990e-02" rms="2.9766044020652771e-01" purity="8.5431915521621704e-01" nType="0">
            <Node pos="l" depth="3" NCoef="0" IVar="-1" Cut="0.0000000000000000e+00" cType="1" res="-4.3438231945037842e-01" rms="3.1880119442939758e-01" purity="8.2397961616516113e-01" nType="-99"/>
            <Node pos="r" depth="3" NCoef="0" IVar="-1" Cut="0.0000000000000000e+00" cType="1" res="7.9764932394027710e-02" rms="2.6181054115295410e-01" purity="8.9518898725509644e-01" nType="-99"/>
          </Node>
        </Node>
        <Node pos="r" depth="1" NCoef="0" IVar="9" Cut="4.5238094329833984e+00" cType="1" res="3.9932127110660076e-03" rms="2.8659114241600037e-01" purity="8.1577748060226440e-01" nType="0">
          <Node pos="l" depth="2" NCoef="0" IVar="2" Cut="2.0123001933097839e-01" cType="1" res="4.9939837306737900e-02" rms="3.7471386790275574e-01" purity="2.1785421669483185e-01" nType="0">
            <Node pos="l" depth="3" NCoef="0" IVar="-1" Cut="0.0000000000000000e+00" cType="1" res="3.4965906292200089e-02" rms="3.4997615218162537e-01" purity="1.8207283318042755e-01" nType="-99"/>
            <Node pos="r" depth="3" NCoef="0" IVar="-1" Cut="0.0000000000000000e+00" cType="1" res="5.1825892925262451e-01" rms="3.9951282739639282e-01" purity="2.6824456453323364e-01" nType="-99"/>
          </Node>
          <Node pos="r" depth="2" NCoef="0" IVar="9" Cut="5.4761905670166016e+00" cType="1" res="1.2792256893590093e-03" rms="2.8028583526611328e-01" purity="8.5109573602676392e-01" nType="0">
            <Node pos="l" depth="3" NCoef="0" IVar="-1" Cut="0.0000000000000000e+00" cType="1" res="-1.1679932475090027e-01" rms="4.2482796311378479e-01" purity="4.7093763947486877e-01" nType="-99"/>
            <Node pos="r" depth="3" NCoef="0" IVar="-1" Cut="0.0000000000000000e+00" cType="1" res="4.9166090786457062e-02" rms="2.5537273287773132e-01" purity="9.0002185106277466e-01" nType="-99"/>
          </Node>
        </Node>
      </Node>
    </BinaryTree>
    <BinaryTree type="DecisionTree" boostWeight="1.0000000000000000e+00" itree="27">
      <Node pos="s" depth="0" NCoef="0" IVar="9" Cut="4.2857141494750977e+00" cType="1" res="-2.6975281798513606e-05" rms="3.0804681777954102e-01" purity="5.0000000000000000e-01" nType="0">
        <Node pos="l" depth="1" NCoef="0" IVar="11" Cut="6.5241366624832153e-01" cType="1" res="-7.8269615769386292e-03" rms="2.0276062190532684e-01" purity="5.4722838103771210e-02" nType="0">
          <Node pos="l" depth="2" NCoef="0" IVar="0" Cut="-3.0802434682846069e-01" cType="1" res="-5.8373766951262951e-03" rms="2.0261880755424500e-01" purity="5.5370371788740158e-02" nType="0">
            <Node pos="l" depth="3" NCoef="0" IVar="-1" Cut="0.0000000000000000e+00" cType="1" res="1.1191405355930328e-01" rms="1.6936622560024261e-01" purity="3.5067874938249588e-02" nType="-99"/>
            <Node pos="r" depth="3" NCoef="0" IVar="-1" Cut="0.0000000000000000e+00" cType="1" res="-1.1657584458589554e-01" rms="2.2243422269821167e-01" purity="6.9435738027095795e-02" nType="-99"/>
          </Node>
          <Node pos="r" depth="2" NCoef="0" IVar="-1" Cut="0.0000000000000000e+00" cType="1" res="-4.1198888421058655e-01" rms="2.0070502161979675e-01" purity="3.9999999105930328e-02" nType="-99"/>
        </Node>
        <Node pos="r" depth="1" NCoef="0" IVar="4" Cut="1.0598243772983551e-01" cType="1" res="1.6099693020805717e-03" rms="3.2582840323448181e-01" purity="5.9344810247421265e-01" nType="0">
          <Node pos="l" depth="2" NCoef="0" IVar="4" Cut="7.6311022043228149e-02" cType="1" res="-3.6739461123943329e-02" rms="2.4903993308544159e-01" purity="1.2913906574249268e-01" nType="0">
            <Node pos="l" depth="3" NCoef="0" IVar="-1" Cut="0.0000000000000000e+00" cType="1" res="-4.2213463783264160e-01" rms="2.3168213665485382e-01" purity="8.9655175805091858e-02" nType="-99"/>
            <Node pos="r" depth="3" NCoef="0" IVar="-1" Cut="0.0000000000000000e+00" cType="1" res="-5.7910517789423466e-03" rms="2.5891909003257751e-01" purity="1.6560509800910950e-01" nType="-99"/>
          </Node>
          <Node pos="r" depth="2" NCoef="0" IVar="0" Cut="1.2699350714683533e-01" cType="1" res="2.2677739616483450e-03" rms="3.2694903016090393e-01" purity="6.0141235589981079e-01" nType="0">
            <Node pos="l" depth="3" NCoef="0" IVar="-1" Cut="0.0000000000000000e+00" cType="1" res="3.3144149929285049e-02" rms="3.4366959333419800e-01" purity="4.0233081579208374e-01" nType="-99"/>
            <Node pos="r" depth="3" NCoef="0" IVar="-1" Cut="0.0000000000000000e+00" cType="1" res="-1.3945422135293484e-02" rms="3.0945977568626404e-01" purity="7.9820793867111206e-01" nType="-99"/>
          </Node>
        </Node>
      </Node>
    </BinaryTree>
    <BinaryTree type="DecisionTree" boostWeight="1.0000000000000000e+00" itree="28">
      <Node pos="s" depth="0" NCoef="0" IVar="2" Cut="2.2395353317260742e+00" cType="1" res="-2.8915735310874879e-04" rms="3.0773547291755676e-01" purity="5.0000000000000000e-01" nType="0">
        <Node pos="l" depth="1" NCoef="0" IVar="2" Cut="-2.2321221828460693e+00" cType="1" res="-6.8520741479005665e-05" rms="3.0777299404144287e-01" purity="4.9879211187362671e-01" nType="0">
          <Node pos="l" depth="2" NCoef="0" IVar="-1" Cut="0.0000000000000000e+00" cType="1" res="-1.8835642933845520e-01" rms="3.0505546927452087e-01" purity="6.7881941795349121e-01" nType="-99"/>
          <Node pos="r" depth="2" NCoef="0" IVar="9" Cut="1.1428571701049805e+01" cType="1" res="1.8186432134825736e-04" rms="3.0778592824935913e-01" purity="4.9717187881469727e-01" nType="0">
            <Node pos="l" depth="3" NCoef="0" IVar="-1" Cut="0.0000000000000000e+00" cType="1" res="-3.4660825622268021e-04" rms="3.0908292531967163e-01" purity="4.9262931942939758e-01" nType="-99"/>
            <Node pos="r" depth="3" NCoef="0" IVar="-1" Cut="0.0000000000000000e+00" cType="1" res="6.4682167768478394e-01" rms="7.3711261153221130e-02" purity="1.0000000000000000e+00" nType="-99"/>
          </Node>
        </Node>
        <Node pos="r" depth="1" NCoef="0" IVar="-1" Cut="0.0000000000000000e+00" cType="1" res="-2.1989116072654724e-01" rms="3.0007821321487427e-01" purity="6.8396228551864624e-01" nType="-99"/>
      </Node>
    </BinaryTree>
    <BinaryTree type="DecisionTree" boostWeight="1.0000000000000000e+00" itree="29">
      <Node pos="s" depth="0" NCoef="0" IVar="3" Cut="3.2595750689506531e-01" cType="1" res="9.7801043011713773e-05" rms="3.0762645602226257e-01" purity="5.0000000000000000e-01" nType="0">
        <Node pos="l" depth="1" NCoef="0" IVar="0" Cut="6.9611489772796631e-02" cType="1" res="1.4779107645153999e-02" rms="2.7135908603668213e-01" purity="2.2495983541011810e-01" nType="0">
          <Node pos="l" depth="2" NCoef="0" IVar="0" Cut="-6.6370570659637451e-01" cType="1" res="-1.2680361047387123e-02" rms="1.9004382193088531e-01" purity="6.5943993628025055e-02" nType="0">
            <Node pos="l" depth="3" NCoef="0" IVar="-1" Cut="0.0000000000000000e+00" cType="1" res="3.7146410346031189e-01" rms="1.8578109145164490e-01" purity="5.9496566653251648e-02" nType="-99"/>
            <Node pos="r" depth="3" NCoef="0" IVar="-1" Cut="0.0000000000000000e+00" cType="1" res="-3.3067294955253601e-01" rms="1.8993578851222992e-01" purity="7.0149250328540802e-02" nType="-99"/>
          </Node>
          <Node pos="r" depth="2" NCoef="0" IVar="-1" Cut="0.0000000000000000e+00" cType="1" res="2.6456993818283081e-01" rms="3.5438290238380432e-01" purity="4.5657894015312195e-01" nType="-99"/>
        </Node>
        <Node pos="r" depth="1" NCoef="0" IVar="3" Cut="4.5023748278617859e-01" cType="1" res="-3.3636172884143889e-04" rms="3.0862346291542053e-01" purity="5.0813364982604980e-01" nType="0">
          <Node pos="l" depth="2" NCoef="0" IVar="4" Cut="7.0692139863967896e-01" cType="1" res="-7.4126939289271832e-03" rms="3.0847892165184021e-01" purity="4.0115398168563843e-01" nType="0">
            <Node pos="l" depth="3" NCoef="0" IVar="-1" Cut="0.0000000000000000e+00" cType="1" res="-1.8537733703851700e-02" rms="3.0721357464790344e-01" purity="3.7057191133499146e-01" nType="-99"/>
            <Node pos="r" depth="3" NCoef="0" IVar="-1" Cut="0.0000000000000000e+00" cType="1" res="-2.2038160264492035e-01" rms="3.1641408801078796e-01" purity="6.3999998569488525e-01" nType="-99"/>
          </Node>
          <Node pos="r" depth="2" NCoef="0" IVar="2" Cut="-1.7535287141799927e+00" cType="1" res="1.0869556572288275e-03" rms="3.0863294005393982e-01" purity="5.2965128421783447e-01" nType="0">
            <Node pos="l" depth="3" NCoef="0" IVar="-1" Cut="0.0000000000000000e+00" cType="1" res="9.6221543848514557e-02" rms="2.9491969943046570e-01" purity="6.5178167819976807e-01" nType="-99"/>
            <Node pos="r" depth="3" NCoef="0" IVar="-1" Cut="0.0000000000000000e+00" cType="1" res="2.2420180030167103e-03" rms="3.0920478701591492e-01" purity="5.2427297830581665e-01" nType="-99"/>
          </Node>
        </Node>
      </Node>
    </BinaryTree>
    <BinaryTree type="DecisionTree" boostWeight="1.0000000000000000e+00" itree="30">
      <Node pos="s" depth="0" NCoef="0" IVar="0" Cut="1.8103483319282532e-01" cType="1" res="-5.6211312767118216e-05" rms="3.0728957056999207e-01" purity="5.0000000000000000e-01" nType="0">
        <Node pos="l" depth="1" NCoef="0" IVar="5" Cut="9.7220634460449219e+01" cType="1" res="-1.2678479542955756e-03" rms="3.1300783157348633e-01" purity="4.1993162035942078e-01" nType="0">
          <Node pos="l" depth="2" NCoef="0" IVar="4" Cut="6.3545918464660645e-01" cType="1" res="-2.5523163378238678e-02" rms="3.2404497265815735e-01" purity="2.8187251091003418e-01" nType="0">
            <Node pos="l" depth="3" NCoef="0" IVar="-1" Cut="0.0000000000000000e+00" cType="1" res="5.3746741265058517e-02" rms="3.0898609757423401e-01" purity="2.1314741671085358e-01" nType="-99"/>
            <Node pos="r" depth="3" NCoef="0" IVar="-1" Cut="0.0000000000000000e+00" cType="1" res="-2.4994154274463654e-01" rms="3.3500605821609497e-01" purity="3.5059762001037598e-01" nType="-99"/>
          </Node>
          <Node pos="r" depth="2" NCoef="0" IVar="2" Cut="-1.9861521720886230e+00" cType="1" res="-7.9094956163316965e-04" rms="3.1276804208755493e-01" purity="4.2264610528945923e-01" nType="0">
            <Node pos="l" depth="3" NCoef="0" IVar="-1" Cut="0.0000000000000000e+00" cType="1" res="9.7173869609832764e-02" rms="3.1124049425125122e-01" purity="5.8453696966171265e-01" nType="-99"/>
            <Node pos="r" depth="3" NCoef="0" IVar="-1" Cut="0.0000000000000000e+00" cType="1" res="-6.7386822775006294e-03" rms="3.1279104948043823e-01" purity="4.1882655024528503e-01" nType="-99"/>
          </Node>
        </Node>
        <Node pos="r" depth="1" NCoef="0" IVar="8" Cut="2.3809523880481720e-01" cType="1" res="4.8221908509731293e-03" rms="2.8304740786552429e-01" purity="8.2237857580184937e-01" nType="0">
          <Node pos="l" depth="2" NCoef="0" IVar="10" Cut="5.1563342285156250e+02" cType="1" res="4.7737549990415573e-02" rms="3.0762454867362976e-01" purity="8.0995935201644897e-01" nType="0">
            <Node pos="l" depth="3" NCoef="0" IVar="-1" Cut="0.0000000000000000e+00" cType="1" res="3.2916459441184998e-01" rms="3.6165001988410950e-01" purity="7.1302425861358643e-01" nType="-99"/>
            <Node pos="r" depth="3" NCoef="0" IVar="-1" Cut="0.0000000000000000e+00" cType="1" res="7.1651287376880646e-02" rms="2.4643281102180481e-01" purity="8.9265537261962891e-01" nType="-99"/>
          </Node>
          <Node pos="r" depth="2" NCoef="0" IVar="4" Cut="6.4260876178741455e-01" cType="1" res="1.2878153938800097e-03" rms="2.8063517808914185e-01" purity="8.2340139150619507e-01" nType="0">
            <Node pos="l" depth="3" NCoef="0" IVar="-1" Cut="0.0000000000000000e+00" cType="1" res="-4.2916532605886459e-02" rms="3.0478692054748535e-01" purity="7.6896703243255615e-01" nType="-99"/>
            <Node pos="r" depth="3" NCoef="0" IVar="-1" Cut="0.0000000000000000e+00" cType="1" res="1.0600792616605759e-01" rms="2.4577048420906067e-01" purity="8.9310938119888306e-01" nType="-99"/>
          </Node>
        </Node>
      </Node>
    </BinaryTree>
    <BinaryTree type="DecisionTree" boostWeight="1.0000000000000000e+00" itree="31">
      <Node pos="s" depth="0" NCoef="0" IVar="2" Cut="-1.7513917684555054e+00" cType="1" res="8.7703003373462707e-05" rms="3.0705612897872925e-01" purity="5.0000000000000000e-01" nType="0">
        <Node pos="l" depth="1" NCoef="0" IVar="10" Cut="5.6186773681640625e+02" cType="1" res="-1.5088936313986778e-02" rms="3.1108650565147400e-01" purity="5.9484857320785522e-01" nType="0">
          <Node pos="l" depth="2" NCoef="0" IVar="9" Cut="6.2857141494750977e+00" cType="1" res="-4.0010176599025726e-02" rms="3.3260729908943176e-01" purity="4.5676144957542419e-01" nType="0">
            <Node pos="l" depth="3" NCoef="0" IVar="-1" Cut="0.0000000000000000e+00" cType="1" res="-7.7483102679252625e-02" rms="3.2075196504592896e-01" purity="2.8166517615318298e-01" nType="-99"/>
            <Node pos="r" depth="3" NCoef="0" IVar="-1" Cut="0.0000000000000000e+00" cType="1" res="-5.5079954862594604e-01" rms="3.4972554445266724e-01" purity="7.8956228494644165e-01" nType="-99"/>
          </Node>
          <Node pos="r" depth="2" NCoef="0" IVar="1" Cut="7.2073783874511719e+01" cType="1" res="2.2249585017561913e-02" rms="2.7146828174591064e-01" purity="8.0173915624618530e-01" nType="0">
            <Node pos="l" depth="3" NCoef="0" IVar="-1" Cut="0.0000000000000000e+00" cType="1" res="-7.9653210937976837e-02" rms="2.7588596940040588e-01" purity="7.6674365997314453e-01" nType="-99"/>
            <Node pos="r" depth="3" NCoef="0" IVar="-1" Cut="0.0000000000000000e+00" cType="1" res="2.8508469462394714e-01" rms="2.6674109697341919e-01" purity="8.2287305593490601e-01" nType="-99"/>
          </Node>
        </Node>
        <Node pos="r" depth="1" NCoef="0" IVar="11" Cut="6.4484071731567383e-01" cType="1" res="7.8953127376735210e-04" rms="3.0685031414031982e-01" purity="4.9561381340026855e-01" nType="0">
          <Node pos="l" depth="2" NCoef="0" IVar="11" Cut="5.2192109823226929e-01" cType="1" res="-7.7273361966945231e-05" rms="3.0803412199020386e-01" purity="4.8277965188026428e-01" nType="0">
            <Node pos="l" depth="3" NCoef="0" IVar="-1" Cut="0.0000000000000000e+00" cType="1" res="7.2063826955854893e-03" rms="3.0675581097602844e-01" purity="4.6540358662605286e-01" nType="-99"/>
            <Node pos="r" depth="3" NCoef="0" IVar="-1" Cut="0.0000000000000000e+00" cType="1" res="-4.5485053211450577e-02" rms="3.1559890508651733e-01" purity="5.8883249759674072e-01" nType="-99"/>
          </Node>
          <Node pos="r" depth="2" NCoef="0" IVar="10" Cut="6.4514923095703125e+02" cType="1" res="1.1252827942371368e-02" rms="2.9197928309440613e-01" purity="6.5053647756576538e-01" nType="0">
            <Node pos="l" depth="3" NCoef="0" IVar="-1" Cut="0.0000000000000000e+00" cType="1" res="-4.6862112358212471e-03" rms="3.1516972184181213e-01" purity="5.5944460630416870e-01" nType="-99"/>
            <Node pos="r" depth="3" NCoef="0" IVar="-1" Cut="0.0000000000000000e+00" cType="1" res="3.7600317597389221e-01" rms="2.1506455540657043e-01" purity="8.9351850748062134e-01" nType="-99"/>
          </Node>
        </Node>
      </Node>
    </BinaryTree>
    <BinaryTree type="DecisionTree" boostWeight="1.0000000000000000e+00" itree="32">
